{"learner":{"attributes":{"best_iteration":"19","best_ntree_limit":"20"},"feature_names":[],"feature_types":[],"gradient_booster":{"model":{"gbtree_model_param":{"num_parallel_tree":"1","num_trees":"20","size_leaf_vector":"0"},"tree_info":[0,0,0,0,0,0,0,0,0,0,0,0,0,0,0,0,0,0,0,0],"trees":[{"base_weights":[-1.5597901E-1,3.1126672E-1,-4.16963E-1,3.694004E-1,-3.8842976E-1,-9.5823094E-2,-4.711139E-1,4.059406E-1,2.1582734E-2,-1.0294118E-1,-4.943182E-1,8.7890625E-2,-4.0460527E-1,-3.318182E-1,-4.9301878E-1,4.2801046E-1,2.5297618E-1,1.9270833E-1,-3.5227272E-1,2.1052632E-1,-4.6875E-1,1.9138756E-1,-3.6458334E-1,1.4285715E-1,-4.280822E-1,-1.2053572E-1,-4.3835616E-1,-4E-1,-4.9673858E-1,4.310799E-1,-6.25E-2,2.9299363E-1,-2.9166666E-1,3.0985916E-1,-1.3461539E-1,-3.9285713E-1,3.3333334E-1,-2.857143E-1,4.6153846E-1,2.2979797E-1,-4.5833334E-1,-4.021739E-1,3.3333334E-1,-3.3333334E-1,4E-1,-4.5255473E-1,-5E-2,-0E0,-4.5E-1,-4.4700462E-1,3.3333334E-1,-2.1666667E-1,-4.9107143E-1,-4.9723756E-1,-0E0,4.405987E-1,2.8169015E-1,3.75E-1,-4E-1,3.4191176E-1,-2.2727273E-2,-4.5E-1,3.3333334E-1,3.3333334E-1,-3.3333334E-1,-2.5E-1,4E-1,-4.1463414E-1,2.5E-1,-4.1666666E-1,2.5E-1,3.3913043E-1,7.7380955E-2,3.3333334E-1,-4.431818E-1,-4.595588E-1,2.5E-1,4E-1,-4.1666666E-1,1.7777778E-1,-2.0512821E-1,-4.827586E-1,2.5E-1,-4.5560747E-1,1.25E-1,6.666667E-2,-4.6875E-1,-4.9773756E-1,-0E0,2.5E-1,-2.5E-1,4.4230768E-1,-1.25E-1,3.7E-1,6.818182E-2,3.6641222E-1,-2.5E-1,-3.75E-1,3.6363637E-1,3.560606E-1,-1.25E-1,2.5E-1,-4.117647E-1,-4.375E-1,2.5E-1,3.8317758E-1,-2.2222222E-1,-1.18421055E-1,2.3404256E-1,-4.651163E-1,2.5E-1,-4.6666667E-1,2.5E-1,3.7037036E-1,-1.0526316E-1,-0E0,-4.7058824E-1,-2.972973E-1,-4.8595506E-1,3.3333334E-1,-2.5E-1,3.5E-1,-4.1666666E-1,2.5E-1,-2.5E-1,4.4475922E-1,6.25E-2,2.5E-1,-3.3333334E-1,3.877551E-1,-2.5E-1,2.3529412E-1,-4.1666666E-1,-6.25E-2,3.9112905E-1,-4E-1,2.5E-1,2.5E-1,-4.5454547E-1,-2.5E-1,4.5E-1,3.809524E-1,-1.25E-1,2.5E-1,-3.3333334E-1,4E-1,-2.5E-1,-4.6875E-1,2.5E-1,-1.4285715E-1,-4.852941E-1,3.9903846E-1,-1.25E-1,-4.2857143E-1,3.3333334E-1,8E-2,-4.642857E-1,3.5135135E-1,-1.8181819E-1,-2.5E-1,-4.868421E-1,-4.7328246E-1,-2E-1,4.7619048E-1,-0E0,-4.5833334E-1,4.375E-1,1.764706E-1,-4.2857143E-1,3.75E-1,-3.6764705E-1,-4.9137932E-1,-2E-1,4.4444445E-1,-2.5E-1,4.456522E-1,-2.5E-1,4E-1,-3.75E-1,4.0625E-1,-2.5E-1,3.846154E-1,-2E-1,-4E-1,3.75E-1,4.1025642E-1,6.25E-2,4.0833333E-1,-1.25E-1,-3.3333334E-1,2.5E-1,3.3333334E-1,-4E-1,4.07767E-1,-2.5E-1,-3.3333334E-1,2.5E-1,2.631579E-1,-4.2857143E-1,4E-1,-3.3333334E-1,3.75E-1,-4.375E-1,2.5E-1,-4E-1,-4.8031497E-1,-2E-1,2.5E-1,-3.75E-1,-3.75E-1,3.75E-1,4.5E-1,-1.875E-1,-4.21875E-1,3.3333334E-1,-4.970588E-1,-2E-1,-3.75E-1,2.5E-1,4.4654682E-1,-2.5E-1,-0E0,4.431818E-1,4.5833334E-1,-2.5E-1,-3.75E-1,2.5E-1,4.1810346E-1,-2.5E-1,-3.75E-1,4E-1,4.2372882E-1,-2.5E-1,-3.3333334E-1,2.5E-1,4.1666666E-1,-2.5E-1,4E-1,-2E-1,4.8214287E-1,6.25E-2,2.5E-1,-3.75E-1,-4.1666666E-1,3.3333334E-1,-4.8214287E-1,-0E0,2.5E-1,-3.75E-1],"categories":[],"categories_nodes":[],"categories_segments":[],"categories_sizes":[],"default_left":[1,1,1,1,1,1,1,1,1,1,0,1,1,1,1,1,1,1,1,1,0,1,1,1,1,1,1,1,1,1,1,1,1,1,1,1,0,1,0,1,0,1,0,0,0,1,1,1,1,1,0,1,0,1,1,1,1,0,0,1,1,0,0,1,0,1,0,1,0,0,0,1,1,0,1,1,0,0,0,1,1,0,0,1,1,1,0,0,1,0,0,1,1,1,1,1,1,1,1,1,1,1,1,1,0,1,1,1,1,1,0,1,0,1,1,1,0,1,1,0,0,1,0,0,0,1,1,0,0,1,0,1,0,1,1,0,0,0,0,0,0,1,1,0,0,0,0,0,0,1,0,1,1,0,0,1,0,1,1,1,0,1,1,0,1,0,0,1,0,0,1,1,1,0,0,1,0,0,0,1,0,1,1,0,0,1,1,1,1,0,0,0,0,1,0,0,0,1,0,1,0,0,0,0,0,0,1,0,0,0,0,0,1,1,0,0,1,0,0,0,0,0,0,0,0,0,0,0,0,0,0,0,0,0,0,0,0,0,0,0,0,0,0,0,0,0,0,0,0],"id":0,"left_children":[1,3,5,7,9,11,13,15,17,19,-1,21,23,25,27,29,31,33,35,37,-1,39,41,43,45,47,49,51,53,55,57,59,61,63,65,67,-1,69,-1,71,-1,73,-1,-1,-1,75,77,79,81,83,-1,85,-1,87,89,91,93,-1,-1,95,97,-1,-1,99,-1,101,-1,103,-1,-1,-1,105,107,-1,109,111,-1,-1,-1,113,115,-1,-1,117,119,121,-1,-1,123,-1,-1,125,127,129,131,133,135,137,139,141,143,145,147,149,-1,151,153,155,157,159,-1,161,-1,163,165,167,-1,169,171,-1,-1,173,-1,-1,-1,175,177,-1,-1,179,-1,181,-1,183,185,-1,-1,-1,-1,-1,-1,187,189,-1,-1,-1,-1,-1,-1,191,-1,193,195,-1,-1,197,-1,199,201,203,-1,205,207,-1,209,-1,-1,211,-1,-1,213,215,217,-1,-1,219,-1,-1,-1,221,-1,223,225,-1,-1,227,229,231,233,-1,-1,-1,-1,235,-1,-1,-1,237,-1,239,-1,-1,-1,-1,-1,-1,241,-1,-1,-1,-1,-1,243,245,-1,-1,247,-1,-1,-1,-1,-1,-1,-1,-1,-1,-1,-1,-1,-1,-1,-1,-1,-1,-1,-1,-1,-1,-1,-1,-1,-1,-1,-1,-1,-1,-1,-1,-1],"loss_changes":[5.3448694E2,6.4045395E1,4.885556E1,1.843245E1,3.6069355E0,2.3123663E1,7.1777344E0,4.32428E0,8.960584E0,3.9974363E0,0E0,1.2058172E1,2.0147686E0,7.375332E0,5.19989E-1,1.7523499E0,3.7470522E0,3.7229507E0,1.3552489E0,2.4985542E0,0E0,5.3211384E0,1.3933425E0,9.904762E-1,1.3282566E0,4.4477677E0,1.6105881E0,1.3127975E0,4.9398804E-1,1.4955597E0,1.33125E0,2.4325542E0,1.3375E0,1.1830988E0,1.7038461E0,6.916375E-1,0E0,5.9523803E-1,0E0,3.2732553E0,0E0,1.5351605E0,0E0,0E0,0E0,7.890339E-1,1.8166667E0,3.063248E0,8.086209E-1,1.1247826E0,0E0,2.1739583E0,0E0,4.9499512E-1,2.5E-1,1.0885925E0,1.3134694E0,0E0,0E0,2.0638885E0,3.1306818E0,0E0,0E0,7.632575E-1,0E0,1.8823528E0,0E0,7.3246956E-1,0E0,0E0,0E0,2.9286375E0,2.6043866E0,0E0,7.852802E-1,8.0257225E-1,0E0,0E0,0E0,2.4920077E0,2.12368E0,0E0,0E0,8.8365173E-1,3.9583334E-1,2.2E0,0E0,0E0,2.5E-1,0E0,0E0,9.647522E-1,3.9583334E-1,6.47347E-1,1.8805704E0,1.4132233E0,5.5E-1,7.1022725E-1,6.954546E-1,8.3793354E-1,3.9583334E-1,5.5E-1,7.582722E-1,4.9396038E-1,0E0,9.123163E-1,1.1746032E0,2.6449623E0,2.3567357E0,7.925415E-2,0E0,1.4351273E-1,0E0,1.0582011E0,3.8415568E0,1.8151261E0,0E0,1.8878179E0,1.7782211E-1,0E0,0E0,6.7777777E-1,0E0,0E0,0E0,7.6841736E-1,1.33125E0,0E0,0E0,6.7952824E-1,0E0,1.1819005E0,0E0,1.33125E0,7.5379944E-1,0E0,0E0,0E0,0E0,0E0,0E0,9.2380905E-1,3.9583334E-1,0E0,0E0,0E0,0E0,0E0,0E0,9.904762E-1,0E0,6.9111633E-1,3.9583334E-1,0E0,0E0,2.4415038E0,0E0,1.365766E0,1.7301136E0,5.5E-1,0E0,1.5570259E-1,4.875E-1,0E0,1.125E0,0E0,0E0,1.7768383E0,0E0,0E0,1.4330578E0,1.8854141E-1,4.875E-1,0E0,0E0,7.701111E-1,0E0,0E0,0E0,7.2017E-1,0E0,7.227564E-1,4.875E-1,0E0,0E0,7.107086E-1,1.33125E0,7.140541E-1,3.9583334E-1,0E0,0E0,0E0,0E0,7.071209E-1,0E0,0E0,0E0,1.2842107E0,0E0,9.401789E-1,0E0,0E0,0E0,0E0,0E0,0E0,4.875E-1,0E0,0E0,0E0,0E0,0E0,1.09375E0,8.136163E-1,0E0,0E0,4.875E-1,0E0,0E0,0E0,0E0,0E0,0E0,0E0,0E0,0E0,0E0,0E0,0E0,0E0,0E0,0E0,0E0,0E0,0E0,0E0,0E0,0E0,0E0,0E0,0E0,0E0,0E0,0E0,0E0,0E0,0E0,0E0,0E0],"parents":[2147483647,0,0,1,1,2,2,3,3,4,4,5,5,6,6,7,7,8,8,9,9,11,11,12,12,13,13,14,14,15,15,16,16,17,17,18,18,19,19,21,21,22,22,23,23,24,24,25,25,26,26,27,27,28,28,29,29,30,30,31,31,32,32,33,33,34,34,35,35,37,37,39,39,41,41,45,45,46,46,47,47,48,48,49,49,51,51,53,53,54,54,55,55,56,56,59,59,60,60,63,63,65,65,67,67,71,71,72,72,74,74,75,75,79,79,80,80,83,83,84,84,85,85,88,88,91,91,92,92,93,93,94,94,95,95,96,96,97,97,98,98,99,99,100,100,101,101,102,102,103,103,105,105,106,106,107,107,108,108,109,109,111,111,113,113,114,114,115,115,117,117,118,118,121,121,125,125,126,126,129,129,131,131,133,133,134,134,141,141,142,142,149,149,151,151,152,152,155,155,157,157,158,158,159,159,161,161,162,162,164,164,167,167,170,170,171,171,172,172,175,175,179,179,181,181,182,182,185,185,186,186,187,187,188,188,193,193,197,197,199,199,206,206,212,212,213,213,216,216],"right_children":[2,4,6,8,10,12,14,16,18,20,-1,22,24,26,28,30,32,34,36,38,-1,40,42,44,46,48,50,52,54,56,58,60,62,64,66,68,-1,70,-1,72,-1,74,-1,-1,-1,76,78,80,82,84,-1,86,-1,88,90,92,94,-1,-1,96,98,-1,-1,100,-1,102,-1,104,-1,-1,-1,106,108,-1,110,112,-1,-1,-1,114,116,-1,-1,118,120,122,-1,-1,124,-1,-1,126,128,130,132,134,136,138,140,142,144,146,148,150,-1,152,154,156,158,160,-1,162,-1,164,166,168,-1,170,172,-1,-1,174,-1,-1,-1,176,178,-1,-1,180,-1,182,-1,184,186,-1,-1,-1,-1,-1,-1,188,190,-1,-1,-1,-1,-1,-1,192,-1,194,196,-1,-1,198,-1,200,202,204,-1,206,208,-1,210,-1,-1,212,-1,-1,214,216,218,-1,-1,220,-1,-1,-1,222,-1,224,226,-1,-1,228,230,232,234,-1,-1,-1,-1,236,-1,-1,-1,238,-1,240,-1,-1,-1,-1,-1,-1,242,-1,-1,-1,-1,-1,244,246,-1,-1,248,-1,-1,-1,-1,-1,-1,-1,-1,-1,-1,-1,-1,-1,-1,-1,-1,-1,-1,-1,-1,-1,-1,-1,-1,-1,-1,-1,-1,-1,-1,-1,-1],"split_conditions":[3.5E0,6.47E2,2.75E1,1.585E2,9.295E2,4.155E2,1.525E2,1.95E2,1.815E2,1.97E2,-3.4602273E-1,2.44E2,3.345E2,1.05E2,9.2E1,4.73E3,5.795E2,4E0,3.536E3,6.1E2,-3.28125E-1,1.1195E3,3.0125E3,8.5E1,3.673E3,5.09E2,6.183E3,1.75E1,8.3645E3,1.295E2,1.5745E3,1.2525E3,1.371E3,1.672E3,1.8875E3,5.9625E3,2.3333333E-1,2.175E2,3.2307693E-1,1.6E1,-3.2083333E-1,3E0,2.3333333E-1,-2.3333333E-1,2.8E-1,5.308E3,6.635E2,2.78E2,3.35E3,5.8365E3,2.3333333E-1,4.525E2,-3.4375E-1,8.207E3,2.4295E3,5.4305E3,2.3E1,2.625E-1,-2.8E-1,3.801E3,5.785E2,-3.15E-1,2.3333333E-1,1.342E3,-2.3333333E-1,4.05E1,2.8E-1,3.5885E3,1.75E-1,-2.9166666E-1,1.75E-1,1.376E3,1.65E2,2.3333333E-1,3.683E3,6.5125E3,1.75E-1,2.8E-1,-2.9166666E-1,2.825E2,2.105E2,-3.3793104E-1,1.75E-1,2.035E2,2.208E3,8.275E2,-3.28125E-1,-3.484163E-1,1.4815E3,1.75E-1,-1.75E-1,1.907E3,2.685E2,3.513E3,1.735E2,2.65E1,3.202E3,8.75E1,5.075E2,2.9495E3,7.985E2,1.61E2,2.3685E3,2.43E2,1.75E-1,2.4175E3,3.049E3,6.95E1,3.17E2,2.08E2,1.75E-1,3.563E3,1.75E-1,1.2565E3,2.252E3,7.55E1,-3.2941177E-1,1.5E1,4.8045E3,2.3333333E-1,-1.75E-1,4.28E2,-2.9166666E-1,1.75E-1,-1.75E-1,5.9045E3,2.35E1,1.75E-1,-2.3333333E-1,3.275E3,-1.75E-1,1E1,-2.9166666E-1,1.9305E3,2.1805E3,-2.8E-1,1.75E-1,1.75E-1,-3.181818E-1,-1.75E-1,3.15E-1,2.8E1,4.7065E3,1.75E-1,-2.3333333E-1,2.8E-1,-1.75E-1,-3.28125E-1,1.75E-1,5.135E2,-3.3970585E-1,2.2185E3,1.885E2,-3E-1,2.3333333E-1,1.84E2,-3.25E-1,3.1125E3,2.15E1,2.56E2,-3.4078947E-1,3.636E3,1.1E2,3.3333334E-1,5.045E2,-3.2083333E-1,3.0625E-1,2.19E2,-3E-1,2.625E-1,2.593E3,4.3915E3,2.318E3,3.1111112E-1,-1.75E-1,7.5075E3,-1.75E-1,2.8E-1,-2.625E-1,3.6E1,-1.75E-1,4.8445E3,3.885E2,-2.8E-1,2.625E-1,3.046E3,2.145E2,2.49E3,2.02E2,-2.3333333E-1,1.75E-1,2.3333333E-1,-2.8E-1,1.9285E3,-1.75E-1,-2.3333333E-1,1.75E-1,5.53E2,-3E-1,8.38E2,-2.3333333E-1,2.625E-1,-3.0625E-1,1.75E-1,-2.8E-1,-3.3622047E-1,5.21E2,1.75E-1,-2.625E-1,-2.625E-1,2.625E-1,3.15E-1,3.77E2,1.518E3,2.3333333E-1,-3.4794116E-1,3.57E2,-2.625E-1,1.75E-1,3.1258276E-1,-1.75E-1,-0E0,3.1022727E-1,3.2083333E-1,-1.75E-1,-2.625E-1,1.75E-1,2.9267243E-1,-1.75E-1,-2.625E-1,2.8E-1,2.9661018E-1,-1.75E-1,-2.3333333E-1,1.75E-1,2.9166666E-1,-1.75E-1,2.8E-1,-1.4E-1,3.375E-1,4.375E-2,1.75E-1,-2.625E-1,-2.9166666E-1,2.3333333E-1,-3.375E-1,-0E0,1.75E-1,-2.625E-1],"split_indices":[127,124,125,126,124,255,126,375,381,125,0,124,127,124,127,69,125,250,341,380,0,126,105,49,305,255,64,148,33,124,18,341,14,126,32,6,0,70,0,80,0,383,0,0,0,0,143,125,55,98,0,125,0,272,0,174,125,0,0,14,73,0,0,89,0,261,0,306,0,0,0,302,305,0,67,158,0,0,0,36,118,0,0,124,0,165,0,0,0,0,0,120,0,7,208,247,0,117,7,290,3,124,3,381,0,372,0,162,382,380,0,59,0,75,293,121,0,126,168,0,0,1,0,0,0,50,218,0,0,76,0,243,0,3,110,0,0,0,0,0,0,383,0,0,0,0,0,0,0,2,0,78,2,0,0,255,0,201,109,36,0,234,28,0,17,0,0,255,0,0,227,277,6,0,0,58,0,0,0,252,0,29,6,0,0,39,1,68,2,0,0,0,0,87,0,0,0,45,0,219,0,0,0,0,0,0,0,0,0,0,0,0,57,364,0,0,0,0,0,0,0,0,0,0,0,0,0,0,0,0,0,0,0,0,0,0,0,0,0,0,0,0,0,0,0,0,0,0,0],"split_type":[0,0,0,0,0,0,0,0,0,0,0,0,0,0,0,0,0,0,0,0,0,0,0,0,0,0,0,0,0,0,0,0,0,0,0,0,0,0,0,0,0,0,0,0,0,0,0,0,0,0,0,0,0,0,0,0,0,0,0,0,0,0,0,0,0,0,0,0,0,0,0,0,0,0,0,0,0,0,0,0,0,0,0,0,0,0,0,0,0,0,0,0,0,0,0,0,0,0,0,0,0,0,0,0,0,0,0,0,0,0,0,0,0,0,0,0,0,0,0,0,0,0,0,0,0,0,0,0,0,0,0,0,0,0,0,0,0,0,0,0,0,0,0,0,0,0,0,0,0,0,0,0,0,0,0,0,0,0,0,0,0,0,0,0,0,0,0,0,0,0,0,0,0,0,0,0,0,0,0,0,0,0,0,0,0,0,0,0,0,0,0,0,0,0,0,0,0,0,0,0,0,0,0,0,0,0,0,0,0,0,0,0,0,0,0,0,0,0,0,0,0,0,0,0,0,0,0,0,0,0,0,0,0,0,0,0,0,0,0,0,0,0,0,0,0,0,0,0,0],"sum_hessian":[4.381E3,1.57E3,2.811E3,1.45E3,1.2E2,4.06E2,2.405E3,1.312E3,1.38E2,3.3E1,8.7E1,2.55E2,1.51E2,3.29E2,2.076E3,1.145E3,1.67E2,9.5E1,4.3E1,1.8E1,1.5E1,2.08E2,4.7E1,6E0,1.45E2,1.11E2,2.18E2,8.4E1,1.992E3,1.138E3,7E0,1.56E2,1.1E1,7E1,2.5E1,4.1E1,2E0,6E0,1.2E1,1.97E2,1.1E1,4.5E1,2E0,2E0,4E0,1.36E2,9E0,8.2E1,2.9E1,2.16E2,2E0,2.9E1,5.5E1,1.99E3,2E0,1.068E3,7E1,3E0,4E0,1.35E2,2.1E1,9E0,2E0,6.8E1,2E0,2.1E1,4E0,4E1,1E0,5E0,1E0,1.14E2,8.3E1,2E0,4.3E1,1.35E2,1E0,4E0,5E0,4.4E1,3.8E1,2.8E1,1E0,2.13E2,3E0,1.4E1,1.5E1,1.988E3,2E0,1E0,1E0,1.065E3,3E0,4.9E1,2.1E1,1.3E2,5E0,1.1E1,1E1,6.5E1,3E0,5E0,1.6E1,3.9E1,1E0,1.06E2,8E0,3.7E1,4.6E1,4.2E1,1E0,1.34E2,1E0,2.6E1,1.8E1,2.2E1,1.6E1,3.6E1,1.77E2,2E0,1E0,9E0,5E0,1E0,1E0,1.058E3,7E0,1E0,2E0,4.8E1,1E0,1.6E1,5E0,7E0,1.23E2,4E0,1E0,1E0,1E1,1E0,9E0,6.2E1,3E0,1E0,2E0,4E0,1E0,1.5E1,1E0,6E0,3.3E1,1.03E2,3E0,6E0,2E0,2.4E1,1.3E1,3.6E1,1E1,5E0,3.7E1,1.3E2,4E0,2E1,6E0,1.1E1,7E0,1.6E1,6E0,3E0,3.3E1,1.73E2,4E0,8E0,1E0,1.057E3,1E0,4E0,3E0,4.7E1,1E0,1.2E1,4E0,4E0,3E0,1.16E2,7E0,5.9E1,3E0,2E0,1E0,2E0,4E0,1.02E2,1E0,2E0,1E0,1.8E1,6E0,3.4E1,2E0,3E0,7E0,1E0,4E0,1.26E2,4E0,1E0,3E0,3E0,3E0,9E0,7E0,3.1E1,2E0,1.69E2,4E0,3E0,1E0,1.056E3,1E0,4E0,4.3E1,1.1E1,1E0,3E0,1E0,1.15E2,1E0,3E0,4E0,5.8E1,1E0,2E0,1E0,1.01E2,1E0,1.4E1,4E0,2.7E1,7E0,1E0,3E0,5E0,2E0,2.7E1,4E0,1E0,3E0],"tree_param":{"num_deleted":"0","num_feature":"384","num_nodes":"249","size_leaf_vector":"0"}},{"base_weights":[-4.7489192E-2,8.8143654E-2,-1.2903987E-1,1.14661135E-1,-7.0772864E-2,-3.1480357E-2,-1.4427668E-1,1.282538E-1,1.7925195E-2,-7.816086E-3,-1.4791027E-1,4.8375577E-2,-1.0380354E-1,-7.341114E-2,-1.4938092E-1,1.3301867E-1,-6.1406087E-2,4.463476E-2,-1.3685787E-1,6.0706567E-2,-1.0360569E-1,-9.4726115E-2,-1.5246356E-1,9.69159E-2,-5.551486E-2,-2.729056E-2,-1.454869E-1,1.135587E-3,-1.5474957E-1,-1.285242E-1,-1.5241918E-1,1.3444613E-1,-2.3703308E-1,-4.590845E-1,5.2400116E-2,-1.18066E-2,1.1664811E-1,-3.882724E-1,-7.349739E-2,-5.342999E-1,8.36974E-2,-1.5896156E-1,8.746422E-2,4.549277E-2,-1.529948E-1,1.2898844E-1,-1.0688021E-1,-1.7048173E-1,4.640838E-2,5.8020886E-2,-1.6530585E-1,-1.492508E-1,1.625E-1,-4.8999503E-2,1.4693151E-1,-1.5921997E-1,9.25E-2,-1.3187115E-1,2.3227754E-1,-1.526391E-1,-3.761689E-2,1.3549232E-1,-3.2919425E-1,-5.308609E-1,1.3580577E-1,-6.4608413E-1,5.6096814E-3,1.5576714E-1,-9.3318574E-2,3.515121E-2,-2.0170556E-1,1.7669985E-1,4.1950718E-3,-5.3639764E-1,-1.1072305E-1,1.9649474E-1,-1.4441203E-1,-6.333471E-2,1.3471428E-1,-1.6909558E-1,1.3333333E-1,1.689204E-1,-1.3804229E-1,1.1794869E-1,-8.59375E-2,1.1501898E-1,5.656109E-1,-1.8067597E-1,1.7812501E-1,-2.7525032E-1,3.5149902E-2,1.3120073E-1,-1.4477564E-1,1.593345E-1,-1.2923636E-1,-1.9747828E-1,6.905513E-2,-1.5222862E-1,1.10000014E-1,5.2407205E-2,-1.5204394E-1,-1.14973135E-1,1.9433609E-1,-7.8305826E-2,-1.5312263E-1,-7.579185E-2,4.2420816E-1,-2.7675748E-1,-1.5229997E-1,-1.13687776E-1,1.3333333E-1,1.3628238E-1,-4.0629137E-1,-4.0629137E-1,-8.7500006E-2,-8.529411E-2,9.3708634E-2,1.8385766E-1,-1.18750006E-1,-1.645098E-1,1.513613E-1,6.4633414E-2,-1.9772977E-1,-5.62457E-1,-4.521027E-3,1.9388133E-1,-1.17013894E-1,9.459809E-2,-1.3182896E-1,-1.637892E-1,9.25E-2,-1.523518E-1,1.2374726E-1,1.6821477E-1,1.0965372E-2,-1.7784846E-1,9.488636E-2,1.3015057E-1,-8.093748E-2,-5.1666665E-1,-1.6936947E-1,1.6666669E-1,-1.2970021E-1,2.0159315E-1,-9.0111226E-2,2.0786545E-1,-3.3055553E-1,-1.5251878E-1,1.10000014E-1,-3.3854166E-1,-1.6120534E-1,1.4666669E-1,-8.188976E-2,-1.5516002E-1,1.0416669E-1,1.0098786E-1,-1.4246204E-1,-1.7662464E-1,1.4444442E-1,2.1358025E-1,-7.602942E-2,-9.472592E-2,3.9113876E-1,-1.05121076E-1,-3.958333E-1,-1.5249085E-1,-7.851216E-2,1.22344315E-1,1.6964729E-1,1.7769969E-1,-6.6030994E-3,-2.5740546E-1,1.10000014E-1,-6.428896E-1,-8.014707E-2,1.6748573E-1,-1.5130952E-1,2.0539504E-1,-1.3333333E-1,1.8853952E-1,-1.3099265E-1,1.036638E-1,-1.6951303E-1,-3.135357E-1,-2.7967887E-2,-8.014707E-2,1.7108749E-1,1.7764999E-1,-1.18750006E-1,-1.5413193E-1,1.744962E-1,-5.508415E-2,-1.9731994E-1,1.4225131E-1,-1.8372923E-1,-3.4729165E-1,1.4833336E-1,-5.9375E-1,-1.0416667E-1,2.2513023E-1,-8.7500006E-2,-1.4063348E-1,8.125001E-2,1.5759705E-1,5.5748034E-1,-3.958333E-1,-9.9999994E-2,1.9129087E-1,-4.7752056E-2,-1.9099508E-1,1.637428E-2,1.963338E-2,-1.350789E-1,1.0416669E-1,-1.2631975E-1,1.2447511E-1,-3.5943705E-1,1.7549117E-1,-1.4260767E-1,1.9289859E-1,-8.59375E-2,2.3879932E-2,-2.7929962E-1,-3.3124998E-1,-1.1920957E-1,2.1477169E-1,-8.014707E-2,-1.4713542E-1,-4.308908E-1,1.4406675E-1,-1.3799633E-1,1.8987276E-1,-4.8611104E-2,1.2883143E-1,-1.5441667E-1,-2.396585E-1,-1.5768193E-1,1.629542E-1,1.3788315E-2,-3.1441677E-1,1.0416669E-1,1.8189104E-1,3.09375E-1,1.9971569E-1,2.0761171E-2,2.1699655E-1,-1.1E-1,-1.3760352E-1,1.4388889E-1,-1.6554278E-1,-3.4791666E-1,1.0416669E-1,-7.960527E-2,-8.680618E-2,2.6011905E-1,-1.5303828E-1,2.2761809E-2,1.2796679E-1,-1.8057515E-1,-5.417218E-1,9.3708634E-2,1.7694609E-1,-1.625E-1,-2.846342E-1,1.416391E-1,5.342888E-2,-3.1896812E-1,-1.0686276E-1,-3.983051E-1,-1.625E-1,8.958334E-2,1.7399147E-1,-1.7833334E-1,-1.24828786E-1,1.7023809E-1,-3.958333E-1,-7.579185E-2,2.1981484E-1,-8.103448E-2,-1.22834645E-1,1.591667E-1,7.801659E-2,-1.482485E-1,1.2395832E-1,3.3125E-1,1.10000014E-1,-1.6007674E-1,1.5625001E-1,-1.1641685E-1],"categories":[],"categories_nodes":[],"categories_segments":[],"categories_sizes":[],"default_left":[1,1,1,1,1,1,1,1,1,1,1,1,1,1,1,1,1,1,1,1,1,1,0,1,1,1,1,1,1,1,1,1,1,1,1,1,1,1,1,0,1,1,1,1,0,1,1,1,1,1,1,1,0,1,1,0,0,1,1,1,1,1,1,0,0,0,1,1,1,1,1,1,1,0,0,0,1,1,1,1,0,0,0,0,0,1,0,0,0,1,1,1,0,1,1,1,1,1,0,1,1,0,1,1,0,0,0,1,1,0,0,1,0,0,0,0,0,0,0,0,0,1,1,1,1,1,0,1,1,0,0,1,1,1,1,1,0,1,1,1,0,0,0,1,1,1,1,0,0,0,0,0,0,0,0,1,0,1,0,0,0,1,0,0,0,0,1,1,1,1,1,1,0,0,0,0,0,1,0,0,0,0,0,1,1,0,0,1,0,0,0,1,1,1,1,0,0,0,0,1,0,0,0,1,0,0,0,1,1,1,1,1,1,0,0,1,1,1,1,0,0,1,1,0,0,0,0,0,0,0,0,0,1,0,0,0,0,1,1,1,0,0,0,1,1,0,0,0,0,0,0,0,0,1,1,1,1,0,0,0,0,0,0,0,0,0,0,0,0,0,0,0,0,0,0,0,0,0,0,0,0,0,0,0,0,0,0,0,0],"id":1,"left_children":[1,3,5,7,9,11,13,15,17,19,21,23,25,27,29,31,33,35,37,39,41,43,-1,45,47,49,51,53,55,57,59,61,63,65,67,69,71,73,75,-1,77,79,81,83,-1,85,87,89,91,93,95,97,-1,99,101,-1,-1,103,105,107,109,111,113,-1,-1,-1,115,117,119,121,123,125,127,-1,-1,-1,129,131,133,135,-1,-1,-1,-1,-1,137,-1,-1,-1,139,141,143,-1,145,147,149,151,153,-1,155,157,-1,159,161,-1,-1,-1,163,165,-1,-1,167,-1,-1,-1,-1,-1,-1,-1,-1,-1,169,171,173,175,177,-1,179,181,-1,-1,183,185,187,189,191,-1,193,195,197,-1,-1,-1,199,201,203,205,-1,-1,-1,-1,-1,-1,-1,-1,207,-1,209,-1,-1,-1,211,-1,-1,-1,-1,213,215,217,219,221,223,-1,-1,-1,-1,-1,225,-1,-1,-1,-1,-1,227,229,-1,-1,231,-1,-1,-1,233,235,237,239,-1,-1,-1,-1,241,-1,-1,-1,243,-1,-1,-1,245,247,249,251,253,255,-1,-1,257,259,261,263,-1,-1,265,267,-1,-1,-1,-1,-1,-1,-1,-1,-1,269,-1,-1,-1,-1,271,273,275,-1,-1,-1,277,279,-1,-1,-1,-1,-1,-1,-1,-1,281,283,285,287,-1,-1,-1,-1,-1,-1,-1,-1,-1,-1,-1,-1,-1,-1,-1,-1,-1,-1,-1,-1,-1,-1,-1,-1,-1,-1,-1,-1,-1,-1,-1,-1],"loss_changes":[4.8480457E1,6.9444637E0,4.063999E0,1.8530254E0,1.144936E0,2.147708E0,8.45211E-1,1.126051E0,7.295916E-1,8.661418E-1,1.12268925E-2,8.9796925E-1,6.1794686E-1,9.764015E-1,1.2025833E-1,6.6945076E-1,1.4270624E0,6.110568E-1,3.8563636E-1,1.0980562E0,5.956299E-1,9.683422E-2,0E0,8.046738E-1,6.7582613E-1,8.3379114E-1,1.7031646E-1,6.2850636E-1,9.983611E-2,3.7720776E-1,4.2762756E-2,6.2812424E-1,6.198461E-1,6.119077E-1,3.9109865E-1,7.6505554E-1,4.4495678E-1,1.4616877E-1,4.4959682E-1,0E0,5.711159E-1,1.4991713E-1,2.621138E-1,4.8227817E-2,0E0,5.753796E-1,3.8972995E-1,5.91356E-1,5.215339E-1,8.55347E-1,2.1721578E-1,1.1324549E-1,0E0,6.767296E-1,2.95484E-1,0E0,0E0,3.1243753E-1,2.0953535E-1,3.8539886E-2,8.018004E-2,5.694504E-1,2.035129E-2,0E0,0E0,0E0,3.2018382E-2,1.37503E-1,2.1651012E-1,4.865232E-1,1.2067456E0,2.3968375E-1,3.0759838E-1,0E0,0E0,0E0,9.778285E-2,3.5192293E-1,2.3031187E-1,1.1392081E-1,0E0,0E0,0E0,0E0,0E0,3.1594288E-1,0E0,0E0,0E0,3.725971E-1,2.3842227E-1,3.6089683E-1,0E0,7.581811E-1,1.058971E-1,6.8228126E-2,5.8870763E-2,1.09360695E-1,0E0,3.2679385E-1,2.5872505E-1,0E0,1.1509454E-1,6.7684203E-1,0E0,0E0,0E0,4.014057E-2,1.4987946E-2,0E0,0E0,5.372944E-1,0E0,0E0,0E0,0E0,0E0,0E0,0E0,0E0,0E0,5.0054914E-1,1.7522648E-1,1.8123496E-1,3.2832554E-1,1.8185174E-1,0E0,3.4258205E-1,1.0631561E-1,0E0,0E0,2.719126E-1,8.1278995E-2,1.4022934E-1,3.7787595E-1,8.713722E-2,0E0,3.9076054E-1,5.400529E-1,9.7135305E-2,0E0,0E0,0E0,1.3537383E-1,6.337181E-2,3.866564E-1,5.5671334E-3,0E0,0E0,0E0,0E0,0E0,0E0,0E0,0E0,3.7178937E-1,0E0,8.6331666E-2,0E0,0E0,0E0,3.7644583E-1,0E0,0E0,0E0,0E0,7.429236E-2,9.1733074E-1,6.655245E-1,1.12745106E-1,3.3086172E-1,3.1946898E-2,0E0,0E0,0E0,0E0,0E0,1.24310374E-1,0E0,0E0,0E0,0E0,0E0,5.3768218E-2,1.9023901E-1,0E0,0E0,1.2814796E-1,0E0,0E0,0E0,1.4777529E-1,2.0947814E-2,2.4509168E-1,1.8324938E-1,0E0,0E0,0E0,0E0,2.0102262E-3,0E0,0E0,0E0,1.3993716E-1,0E0,0E0,0E0,1.5553272E-1,2.0921105E-1,5.4237366E-2,3.3571046E-2,5.857181E-1,1.735667E-1,0E0,0E0,9.252796E-1,3.8117027E-1,1.9840717E-1,3.2290938E-1,0E0,0E0,3.8175085E-1,3.9519727E-2,0E0,0E0,0E0,0E0,0E0,0E0,0E0,0E0,0E0,6.177372E-2,0E0,0E0,0E0,0E0,3.3237982E-1,3.248632E-1,2.828309E-2,0E0,0E0,0E0,1.2502652E-1,1.5867236E-1,0E0,0E0,0E0,0E0,0E0,0E0,0E0,0E0,1.7359929E-1,2.6735514E-2,1.17583156E-1,1.482411E-1,0E0,0E0,0E0,0E0,0E0,0E0,0E0,0E0,0E0,0E0,0E0,0E0,0E0,0E0,0E0,0E0,0E0,0E0,0E0,0E0,0E0,0E0,0E0,0E0,0E0,0E0,0E0,0E0,0E0,0E0,0E0,0E0],"parents":[2147483647,0,0,1,1,2,2,3,3,4,4,5,5,6,6,7,7,8,8,9,9,10,10,11,11,12,12,13,13,14,14,15,15,16,16,17,17,18,18,19,19,20,20,21,21,23,23,24,24,25,25,26,26,27,27,28,28,29,29,30,30,31,31,32,32,33,33,34,34,35,35,36,36,37,37,38,38,40,40,41,41,42,42,43,43,45,45,46,46,47,47,48,48,49,49,50,50,51,51,53,53,54,54,57,57,58,58,59,59,60,60,61,61,62,62,66,66,67,67,68,68,69,69,70,70,71,71,72,72,76,76,77,77,78,78,79,79,85,85,89,89,90,90,91,91,93,93,94,94,95,95,96,96,97,97,99,99,100,100,102,102,103,103,107,107,108,108,111,111,121,121,122,122,123,123,124,124,125,125,127,127,128,128,131,131,132,132,133,133,134,134,135,135,137,137,138,138,139,139,143,143,144,144,145,145,146,146,155,155,157,157,161,161,166,166,167,167,168,168,169,169,170,170,171,171,177,177,183,183,184,184,187,187,191,191,192,192,193,193,194,194,199,199,203,203,207,207,208,208,209,209,210,210,211,211,212,212,215,215,216,216,217,217,218,218,221,221,222,222,232,232,237,237,238,238,239,239,243,243,244,244,253,253,254,254,255,255,256,256],"right_children":[2,4,6,8,10,12,14,16,18,20,22,24,26,28,30,32,34,36,38,40,42,44,-1,46,48,50,52,54,56,58,60,62,64,66,68,70,72,74,76,-1,78,80,82,84,-1,86,88,90,92,94,96,98,-1,100,102,-1,-1,104,106,108,110,112,114,-1,-1,-1,116,118,120,122,124,126,128,-1,-1,-1,130,132,134,136,-1,-1,-1,-1,-1,138,-1,-1,-1,140,142,144,-1,146,148,150,152,154,-1,156,158,-1,160,162,-1,-1,-1,164,166,-1,-1,168,-1,-1,-1,-1,-1,-1,-1,-1,-1,170,172,174,176,178,-1,180,182,-1,-1,184,186,188,190,192,-1,194,196,198,-1,-1,-1,200,202,204,206,-1,-1,-1,-1,-1,-1,-1,-1,208,-1,210,-1,-1,-1,212,-1,-1,-1,-1,214,216,218,220,222,224,-1,-1,-1,-1,-1,226,-1,-1,-1,-1,-1,228,230,-1,-1,232,-1,-1,-1,234,236,238,240,-1,-1,-1,-1,242,-1,-1,-1,244,-1,-1,-1,246,248,250,252,254,256,-1,-1,258,260,262,264,-1,-1,266,268,-1,-1,-1,-1,-1,-1,-1,-1,-1,270,-1,-1,-1,-1,272,274,276,-1,-1,-1,278,280,-1,-1,-1,-1,-1,-1,-1,-1,282,284,286,288,-1,-1,-1,-1,-1,-1,-1,-1,-1,-1,-1,-1,-1,-1,-1,-1,-1,-1,-1,-1,-1,-1,-1,-1,-1,-1,-1,-1,-1,-1,-1,-1],"split_conditions":[1.95E1,2.295E2,1.05E1,1.05E1,8.14E2,3.245E2,1.085E2,7.725E2,1.0665E3,5E-1,9.295E2,5.8E1,3.5E0,3.125E2,3.315E2,2.25E1,4.745E2,1.955E2,3.3E1,2.315E2,1.167E3,4.3E1,-1.06724486E-1,4.815E2,1.935E2,2.16E2,4.697E3,1.142E3,4.4345E3,5.3005E3,7.475E3,7.206E3,5.5E1,7.855E2,7.5E0,3.175E2,7.25E1,2.31E2,2E0,-3.7400994E-1,1.91E2,4.8615E3,1.3955E3,2.095E2,-1.0709636E-1,1.697E3,9.975E2,4.34E2,1.2005E3,7.75E2,3.3295E3,5.8535E3,1.13749996E-1,4.45E1,2.565E2,-1.1145397E-1,6.475E-2,2.685E2,1.0695E3,1.15E1,2.402E3,4.9655E3,2.5165E3,-3.7160262E-1,9.506404E-2,-4.5225888E-1,1.768E3,7.82E2,1.5165E3,2.575E2,4.65E1,1.345E2,1.602E3,-3.7547833E-1,-7.750613E-2,1.3754632E-1,4.731E3,2.805E2,3.425E2,4.664E3,9.333333E-2,1.18244275E-1,-9.66296E-2,8.256408E-2,-6.015625E-2,5.815E2,3.959276E-1,-1.2647317E-1,1.2468751E-1,5E0,2.55E1,2.11E3,-1.0134295E-1,1.2875E3,2.0325E3,4.28E2,1.832E3,5.9815E3,7.700001E-2,5.66E2,3.559E3,-8.0481194E-2,2.615E3,4.517E3,-1.0718584E-1,-5.3054295E-2,2.9694572E-1,1.4545E3,7.7055E3,-7.958144E-2,9.333333E-2,4.885E2,-2.8440395E-1,-2.8440395E-1,-6.1250005E-2,-5.970588E-2,6.5596044E-2,1.2870036E-1,-8.3125E-2,-1.1515686E-1,1.0595291E-1,3.215E2,4.635E2,3.51E2,5.4E1,3.2935E3,-8.190972E-2,6.12E2,4.55E1,-1.1465244E-1,6.475E-2,3.8E1,3.045E2,2.545E3,5.8E1,8.4E1,6.642045E-2,9.2E2,6E0,6.88E2,-1.1855863E-1,1.1666668E-1,-9.0790145E-2,3.6745E3,3.46E2,4.82E2,7E0,-1.0676315E-1,7.700001E-2,-2.3697916E-1,-1.1284374E-1,1.0266668E-1,-5.7322834E-2,-1.08612016E-1,7.291668E-2,8.7E1,-9.972343E-2,2.773E3,1.0111109E-1,1.4950617E-1,-5.3220592E-2,1.09E2,2.7379712E-1,-7.358475E-2,-2.770833E-1,-1.067436E-1,2.845E2,4.82E2,5.6665E3,4.45E2,7.6E2,1.5E0,7.700001E-2,-4.5002273E-1,-5.610295E-2,1.1724001E-1,-1.05916664E-1,1.8815E3,-9.333333E-2,1.3197766E-1,-9.1694854E-2,7.256466E-2,-1.18659124E-1,1.115E2,8.8E1,-5.610295E-2,1.1976124E-1,3.2835E3,-8.3125E-2,-1.0789235E-1,1.22147344E-1,1.2E2,2.8E2,3.015E2,1.41E2,-2.4310414E-1,1.0383335E-1,-4.15625E-1,-7.291667E-2,2.549E3,-6.1250005E-2,-9.844343E-2,5.687501E-2,1.0455E3,3.9023623E-1,-2.770833E-1,-6.999999E-2,2.195E2,1.64E2,1.594E3,4.21E2,2.615E2,6.695E2,7.291668E-2,-8.8423826E-2,2.885E3,1.185E2,7.2195E3,4.95E3,1.35029E-1,-6.015625E-2,7.77E2,2.24E2,-2.3187499E-1,-8.34467E-2,1.5034018E-1,-5.610295E-2,-1.0299479E-1,-3.0162355E-1,1.0084672E-1,-9.659743E-2,1.3291092E-1,1.92E2,9.0182E-2,-1.0809167E-1,-1.6776095E-1,-1.1037735E-1,3.0825E3,1E0,3.8E1,7.291668E-2,1.2732373E-1,2.165625E-1,2.2E2,9.035E2,1.5189758E-1,-7.7E-2,-9.632246E-2,1.0072222E-1,-1.15879945E-1,-2.4354166E-1,7.291668E-2,-5.5723686E-2,1.05E2,4.225E2,8.15E1,3.815E2,8.957675E-2,-1.264026E-1,-3.7920526E-1,6.5596044E-2,1.2386226E-1,-1.13749996E-1,-1.9924393E-1,9.9147364E-2,3.7400216E-2,-2.2327767E-1,-7.480393E-2,-2.7881357E-1,-1.13749996E-1,6.270833E-2,1.2179403E-1,-1.2483334E-1,-8.738015E-2,1.19166665E-1,-2.770833E-1,-5.3054295E-2,1.5387039E-1,-5.6724135E-2,-8.598425E-2,1.1141668E-1,5.461161E-2,-1.03773944E-1,8.6770825E-2,2.31875E-1,7.700001E-2,-1.12053715E-1,1.0937501E-1,-8.149179E-2],"split_indices":[127,124,124,254,124,255,127,381,97,340,124,117,126,125,127,255,125,263,75,124,334,86,0,332,112,208,48,323,78,313,58,148,7,2,375,71,377,16,374,0,252,111,41,12,0,343,103,346,119,255,307,52,0,142,214,0,0,124,0,124,0,365,0,0,0,0,0,64,5,260,92,383,10,0,0,0,51,52,150,1,0,0,0,0,0,75,0,0,0,305,48,208,0,114,21,255,0,70,0,124,4,0,29,355,0,0,0,0,333,0,0,8,0,0,0,0,0,0,0,0,0,382,9,42,125,50,0,374,3,0,0,120,0,15,29,84,0,87,32,0,0,0,0,118,4,239,7,0,0,0,0,0,0,0,0,179,0,15,0,0,0,328,0,0,0,0,6,8,145,12,50,43,0,0,0,0,0,102,0,0,0,0,0,9,107,0,0,76,0,0,0,0,102,125,0,0,0,0,0,97,0,0,0,296,0,0,0,255,5,196,0,236,380,0,0,208,0,58,5,0,0,114,1,0,0,0,0,0,0,0,0,0,1,0,0,0,0,59,82,0,0,0,0,239,1,0,0,0,0,0,0,0,0,381,14,72,3,0,0,0,0,0,0,0,0,0,0,0,0,0,0,0,0,0,0,0,0,0,0,0,0,0,0,0,0,0,0,0,0],"split_type":[0,0,0,0,0,0,0,0,0,0,0,0,0,0,0,0,0,0,0,0,0,0,0,0,0,0,0,0,0,0,0,0,0,0,0,0,0,0,0,0,0,0,0,0,0,0,0,0,0,0,0,0,0,0,0,0,0,0,0,0,0,0,0,0,0,0,0,0,0,0,0,0,0,0,0,0,0,0,0,0,0,0,0,0,0,0,0,0,0,0,0,0,0,0,0,0,0,0,0,0,0,0,0,0,0,0,0,0,0,0,0,0,0,0,0,0,0,0,0,0,0,0,0,0,0,0,0,0,0,0,0,0,0,0,0,0,0,0,0,0,0,0,0,0,0,0,0,0,0,0,0,0,0,0,0,0,0,0,0,0,0,0,0,0,0,0,0,0,0,0,0,0,0,0,0,0,0,0,0,0,0,0,0,0,0,0,0,0,0,0,0,0,0,0,0,0,0,0,0,0,0,0,0,0,0,0,0,0,0,0,0,0,0,0,0,0,0,0,0,0,0,0,0,0,0,0,0,0,0,0,0,0,0,0,0,0,0,0,0,0,0,0,0,0,0,0,0,0,0,0,0,0,0,0,0,0,0,0,0,0,0,0,0,0,0,0,0,0,0,0,0,0,0,0,0,0,0,0,0,0,0,0,0,0,0,0,0,0,0],"sum_hessian":[4.381E3,1.645E3,2.736E3,1.41E3,2.35E2,3.7E2,2.366E3,1.236E3,1.74E2,1.3E2,1.05E2,1.76E2,1.94E2,1.6E2,2.206E3,1.206E3,3E1,1.49E2,2.5E1,7.6E1,5.4E1,1E1,9.5E1,1.2E2,5.6E1,6.9E1,1.25E2,8.4E1,7.6E1,2.86E2,1.92E3,1.202E3,4E0,6E0,2.4E1,8.4E1,6.5E1,4E0,2.1E1,2E0,7.4E1,4.2E1,1.2E1,3E0,7E0,1.04E2,1.6E1,2.6E1,3E1,4.3E1,2.6E1,1.24E2,1E0,6.3E1,2.1E1,7.5E1,1E0,2.84E2,2E0,1.916E3,4E0,1.2E3,2E0,2E0,2E0,4E0,2E0,1.4E1,1E1,6.8E1,1.6E1,4.2E1,2.3E1,2E0,2E0,4E0,1.7E1,1.9E1,5.5E1,4.1E1,1E0,9E0,3E0,2E0,1E0,1.02E2,2E0,1.3E1,3E0,1.7E1,9E0,2.1E1,9E0,2.8E1,1.5E1,2.3E1,3E0,1.23E2,1E0,3.2E1,3.1E1,3E0,1.8E1,8.2E1,2.02E2,1E0,1E0,3E0,1.913E3,3E0,1E0,1.199E3,1E0,1E0,1E0,1E0,1E0,1.3E1,1E0,8E0,2E0,6.1E1,7E0,5E0,1.1E1,4E1,2E0,1.4E1,9E0,1.6E1,1E0,1.3E1,6E0,4.3E1,1.2E1,4E1,1E0,9.5E1,7E0,4E0,1.3E1,5E0,4E0,1.6E1,5E0,2.6E1,2E0,1.4E1,1E0,3E0,2E1,2E0,1E0,1.22E2,1E0,2.6E1,6E0,2.9E1,2E0,1.7E1,1E0,8E1,2E0,2E0,1E0,1.907E3,6E0,8.49E2,3.5E2,2.3E1,3.8E1,6E0,1E0,4E0,1E0,5E0,6E0,3.9E1,1E0,1E1,4E0,1E0,8E0,5E0,8E0,1E0,5E0,4.2E1,1E0,6E0,6E0,6E0,3.4E1,9.2E1,3E0,3E0,4E0,3E0,1E0,1.5E1,1E0,4E0,1E0,2.4E1,2E0,1E0,1E0,1.6E1,1E1,2.7E1,2E0,2.1E1,5.9E1,1E0,5E0,8.46E2,3E0,3.44E2,6E0,2.2E1,1E0,3.5E1,3E0,3E0,3E0,3.8E1,1E0,3E0,2E0,3E0,5E0,4E1,2E0,2E0,4E0,1.4E1,2E1,7.9E1,1.3E1,2E0,1E0,1.2E1,3E0,1.8E1,6E0,1.5E1,1E0,7E0,3E0,2.5E1,2E0,1E0,1E0,1.5E1,6E0,5.3E1,6E0,8.37E2,9E0,2E0,1E0,3.43E2,1E0,4E0,2E0,3.3E1,2E0,2E0,1E0,1E0,1E0,7.7E1,2E0,7E0,6E0,1E0,1E0,1.7E1,1E0,3E0,3E0,4E0,1.1E1,3E0,3E0,1E0,5.2E1,3E0,3E0],"tree_param":{"num_deleted":"0","num_feature":"384","num_nodes":"289","size_leaf_vector":"0"}},{"base_weights":[-1.5369092E-2,2.502414E-2,-3.8931124E-2,3.4025043E-2,-2.0957908E-2,-9.561244E-3,-4.286164E-2,2.3410706E-2,5.902404E-2,1.7955599E-3,-5.2056804E-2,-6.8315864E-3,-4.5107973E-1,-2.8433202E-2,-4.490857E-2,2.5058785E-2,-3.7262475E-1,6.17136E-2,-2.2401583E-1,2.1602241E-2,-5.716266E-2,-4.236889E-2,-1.2257484E-1,2.05494E-2,-3.4846477E-2,-3.0344516E-2,1.747243E-1,-4.4745363E-2,-1.4603217E-1,4.2757858E-2,-8.473177E-3,-5.2944654E-1,4.8920274E-2,7.017373E-2,5.159281E-3,3.0568868E-2,-3.1906703E-1,4.9658783E-2,-4.474743E-2,-1.6089702E-1,-5.0198678E-2,1.6969419E-3,-5.410407E-2,-2.1367809E-1,-7.387606E-2,2.7432254E-2,-1.1881599E-1,-2.7137902E-1,-3.01937E-2,-3.3326875E-2,8.416864E-2,2.873096E-1,-2.522314E-2,-4.4582803E-2,-1.4535685E-1,-1.966282E-1,-2.2420052E-2,4.574535E-2,-4.2875248E-1,-7.1792714E-2,2.8402481E-2,7.267066E-2,-1.15150206E-1,-9.9029765E-2,6.1571643E-2,8.158005E-2,-8.390756E-3,-1.02845E-1,9.136045E-2,4.3269664E-2,-5.38943E-2,4.8925743E-2,-4.9979653E-2,-1.4076017E-1,-4.760561E-2,-9.1718435E-2,-4.6694737E-2,4.7875013E-2,-2.7085755E-2,-6.9097835E-3,-4.5107973E-1,4.4011176E-2,-4.5107973E-1,-1.3057858E-2,-6.9905296E-2,-2.3857173E-2,-6.258835E-2,1.2725623E-1,-3.0062748E-2,-3.475428E-2,-4.569552E-2,4.864373E-2,-2.575138E-1,-1.0603934E-2,-3.8026586E-1,4.1976437E-2,-8.2604386E-2,7.658772E-2,-5.251591E-2,-3.8148373E-2,-1.5376863E-1,-5.314874E-3,-3.0119288E-1,7.8803286E-2,-3.4848507E-2,6.2996864E-2,2.1664889E-1,-1.7732024E-1,1.0008501E-2,-2.0447631E-1,-2.145904E-2,1.3007647E-1,-5.524111E-2,-1.9983266E-2,7.4115776E-2,-5.8495246E-2,1.7588139E-2,-1.9809933E-1,-3.6500957E-2,-2.4678718E-2,-6.409356E-2,6.221178E-2,-4.561804E-2,9.1519505E-2,-3.799637E-2,5.2185815E-2,-4.0985186E-2,3.598023E-2,-3.552341E-2,-3.369029E-1,-3.1024111E-2,5.9580533E-3,-3.8121678E-2,-1.5227908E-1,-4.7358256E-2,-7.543978E-3,-4.3943573E-2,-7.100652E-2,-4.4949725E-2,5.0199874E-2,-4.5107973E-1,-6.0143965E-1,6.4809024E-2,7.2271763E-3,-6.0143965E-1,-5.4096204E-1,8.485218E-2,4.6990335E-2,-2.7953482E-1,-2.8484604E-1,4.424758E-2,8.02888E-2,-3.9051834E-2,-4.211739E-1,7.6205194E-2,9.108607E-2,-6.899163E-2,-3.5728025E-1,-1.0378033E-2,-3.8148373E-2,8.851942E-2,-6.1045762E-2,4.806888E-2,7.921222E-2,-4.3294832E-2,1.1504878E-2,3.1634468E-1,-1.7142802E-2,9.391139E-2,-3.1057495E-1,-1.5042959E-2,5.5515744E-2,-5.4496754E-2,8.177126E-2,1.7001517E-1,-5.0778277E-2,7.207831E-3,8.4451385E-2,2.5294086E-2,4.1123997E-2,-5.1068235E-2,-6.491275E-2,-1.4843747E-2,7.215585E-2,-8.163076E-2,1.4247896E-1,-9.998496E-2,-1.8535573E-2,-1.15955226E-1,6.46607E-2,-2.676911E-2,-4.0103506E-2,9.234673E-2,-3.9483288E-1,-2.3626395E-2,5.1514804E-2,-4.324015E-2,-2.1543534E-2,6.787651E-2,-4.0671304E-2,1.0291668E-1,-2.8179726E-1,-5.651454E-2,-4.0642057E-2,-1.6813488E-1,-2.9469965E-2,1.5328021E-1,-1.3756636E-1,-4.136064E-2,-1.8824013E-1,-5.4873016E-2,-4.50241E-2,1.609496E-2,5.176112E-2,-4.5107973E-1,2.0215515E-2,-4.1946763E-1,-6.723903E-1,-1.1436641E-2,5.432909E-2,-5.37217E-2,-4.5107973E-1,3.17775E-2,7.876541E-2,-4.7977936E-1,6.717068E-2,-6.983506E-2,9.5662996E-2,6.1919462E-2,-4.5107973E-1,4.7258925E-2,-1.6353838E-1,-3.6730986E-2,9.7085424E-2,5.4968715E-2,8.945854E-2,-4.0492453E-2,-6.493386E-2,4.3269664E-2,4.3269664E-2,-2.6012346E-2,5.397622E-2,-4.718595E-2,1.0800926E-1,3.9111137E-2,-3.5366666E-1,-2.6012346E-2,4.3269664E-2,-4.0438533E-2,-6.1245818E-2,6.496936E-3,-4.0109664E-2,8.166838E-2,-5.565655E-2,2.7231485E-2,7.949995E-2,-3.1527154E-2,6.2416673E-2,-2.052705E-1,-1.1928684E-1,6.581882E-2,-3.3213623E-2,5.5497598E-2,-1.3885604E-1,-3.150186E-2,7.629503E-2,-4.608942E-2,3.713602E-2,-4.3263737E-2,-4.294933E-2,8.666667E-2,7.553762E-2,-3.4299646E-2,-5.1446166E-2,3.9372556E-2,-2.0419867E-1,-1.3958166E-2,1.1060944E-2,1.7302307E-1,-1.0100877E-2,-4.848449E-2,-7.652613E-2,3.17775E-2,-4.458838E-2,5.051629E-2,-3.5561144E-2,7.9842605E-2,3.3465308E-1,1.38004515E-2,-3.76227E-2,-1.5834002E-1,-4.3399327E-2,3.133392E-2,-2.1692012E-1,-2.2420052E-2,-6.627339E-2,-4.4362985E-2,-4.507592E-2,2.5601447E-2,4.6562493E-2,-2.2420052E-2,5.3294796E-2,-4.4112456E-1,5.0155316E-2,-1.6300581E-1,-7.424113E-1,4.8920274E-2,8.79434E-2,-1.5478837E-1,6.2565446E-2,-2.9885741E-2,-4.7677943E-1,6.654147E-2,-6.1286813E-1,-2.600179E-1,1.0305783E-1,2.1307288E-2,6.5469384E-2,-1.3384974E-1,-5.0866783E-2,7.81487E-2,-4.3834537E-2,6.496936E-3,3.8868207E-2,1.0116786E-1,9.7887725E-2,-4.432093E-2,7.133337E-2,-2.5083337E-2,-6.853576E-2,-9.945366E-3,8.397069E-2,-1.2402636E-2,7.582915E-2,-1.3100167E-1,-5.8447935E-2,-2.3472871E-1,-1.3624054E-1,-5.1319294E-2,4.683168E-3,-5.6632947E-2,9.6037894E-2,4.602665E-2,-6.618333E-2,-3.071797E-2,-7.163394E-2,-4.569374E-2,6.7787625E-2,-2.2936326E-2,-2.305762E-2,9.872481E-2,5.500095E-2,-5.3290628E-2,2.0494728E-1,-2.522314E-2,6.6323675E-2,-4.2889774E-2,-7.851231E-2,-4.677222E-2,-8.2951784E-2,-2.219893E-2,1.3239877E-2,-4.792275E-2,-4.0905803E-2,3.479272E-2,5.3210914E-2,-3.0210162E-2,-4.535865E-2,1.3796679E-2,8.398533E-2,-3.1762127E-2,-4.498261E-2,-1.0912819E-1],"categories":[],"categories_nodes":[],"categories_segments":[],"categories_sizes":[],"default_left":[1,1,1,1,1,1,1,1,1,1,1,1,0,1,1,1,1,1,1,1,1,1,1,1,1,1,1,1,1,1,1,0,0,1,1,0,0,1,1,0,1,1,1,0,1,1,1,1,1,1,1,0,0,1,0,0,0,1,0,1,1,1,1,1,1,1,1,1,1,0,0,1,1,1,1,0,0,1,1,1,0,0,0,1,1,1,1,0,0,1,1,1,1,1,1,1,1,1,1,0,0,1,1,1,1,1,1,0,1,1,1,1,0,1,1,0,0,0,0,1,1,1,1,0,1,0,0,1,1,1,1,1,1,1,1,1,1,1,1,1,0,0,0,1,0,1,0,1,1,1,1,1,1,0,0,0,1,0,0,0,1,0,0,1,1,1,0,1,1,1,1,0,1,0,0,0,0,0,0,1,1,0,0,1,1,0,1,1,1,1,1,1,0,0,0,1,1,1,1,1,0,0,1,1,0,1,1,1,1,1,1,1,1,1,0,1,0,1,1,1,1,0,0,0,1,0,0,1,1,0,1,0,1,1,0,1,0,0,0,0,0,1,1,0,0,0,0,0,0,0,0,0,0,0,0,1,1,0,1,1,0,1,0,0,0,1,0,0,0,1,0,0,0,1,1,0,1,1,1,1,1,1,0,1,0,1,0,0,1,0,0,1,1,0,0,0,0,1,0,0,0,0,0,0,0,0,0,0,0,0,0,0,0,0,0,0,0,0,0,0,0,0,0,0,0,0,0,0,0,0,0,0,0,0,0,0,0,0,0,0,0,0,0,0,0,0,0,0,0,0,0,0,0,0,0,0,0,0,0,0,0,0,0,0,0,0,0,0,0,0,0,0,0],"id":2,"left_children":[1,3,5,7,9,11,13,15,17,19,21,23,-1,25,27,29,31,33,35,37,39,41,43,45,47,49,51,53,55,57,59,-1,-1,61,63,-1,-1,65,67,-1,69,71,73,-1,75,77,79,81,83,85,87,-1,-1,89,-1,-1,-1,91,-1,93,95,97,99,101,103,105,107,109,111,-1,-1,113,115,117,119,-1,-1,121,123,125,-1,-1,-1,127,129,131,133,-1,-1,135,137,139,141,143,145,147,149,151,153,-1,-1,155,157,159,161,163,165,-1,167,169,171,173,-1,175,177,-1,-1,-1,-1,179,181,183,185,-1,187,-1,-1,189,191,193,195,197,199,201,203,205,207,209,211,213,-1,-1,-1,215,-1,217,-1,219,221,223,225,227,229,-1,-1,-1,231,-1,-1,-1,233,-1,-1,235,237,239,-1,241,243,245,247,-1,249,-1,-1,-1,-1,-1,-1,251,253,-1,-1,255,257,-1,259,261,263,265,267,269,-1,-1,-1,271,273,275,277,279,-1,-1,281,283,-1,285,287,289,291,293,295,297,299,301,-1,303,-1,305,307,309,311,-1,-1,-1,313,-1,-1,315,317,-1,319,-1,321,323,-1,325,-1,-1,-1,-1,-1,327,329,-1,-1,-1,-1,-1,-1,-1,-1,-1,-1,-1,-1,331,333,-1,335,337,-1,339,-1,-1,-1,341,-1,-1,-1,343,-1,-1,-1,345,347,-1,349,351,353,355,357,359,-1,361,-1,363,-1,-1,365,-1,-1,367,369,-1,-1,-1,-1,371,-1,-1,-1,-1,-1,-1,-1,-1,-1,-1,-1,-1,-1,-1,-1,-1,-1,-1,-1,-1,-1,-1,-1,-1,-1,-1,-1,-1,-1,-1,-1,-1,-1,-1,-1,-1,-1,-1,-1,-1,-1,-1,-1,-1,-1,-1,-1,-1,-1,-1,-1,-1,-1,-1,-1,-1,-1,-1,-1,-1,-1,-1,-1,-1,-1,-1,-1,-1,-1,-1,-1,-1,-1,-1,-1],"loss_changes":[4.171528E0,6.6912925E-1,3.191247E-1,3.571031E-1,1.876095E-1,3.922222E-1,7.081509E-2,6.2940043E-1,3.1984854E-1,1.8107092E-1,7.1321994E-2,2.5154966E-1,0E0,1.2412104E-1,2.8717995E-2,5.6239223E-1,2.903304E-1,1.9054222E-1,1.0654783E-1,2.1816102E-1,2.0096943E-2,5.1803857E-2,4.1890323E-2,1.6249184E-1,1.700924E-1,1.0662699E-1,7.478026E-2,2.8422356E-2,1.435443E-2,8.929666E-1,7.679026E-1,0E0,0E0,1.68939E-1,3.1760758E-1,0E0,0E0,1.5263176E-1,2.8615975E-1,0E0,1.5458085E-2,5.6139007E-2,3.7786424E-2,0E0,5.6702644E-4,1.7850202E-1,2.943421E-1,1.8988006E-1,1.0796586E-1,8.0804765E-2,4.3201316E-2,0E0,0E0,2.1728516E-2,0E0,0E0,0E0,5.548452E-1,0E0,2.279854E0,3.1688225E-1,1.7221677E-1,9.002432E-3,3.5836744E-1,6.089787E-2,1.1938232E-1,9.502002E-2,2.0239615E-1,6.961969E-2,0E0,0E0,2.2310916E-2,7.3579997E-3,2.2659868E-2,2.6769578E-2,0E0,0E0,1.5832302E-1,6.04159E-2,1.6234787E-2,0E0,0E0,0E0,1.257666E-1,4.878446E-1,9.634481E-2,9.114015E-2,0E0,0E0,5.4928064E-2,3.290057E-2,4.9856043E-1,7.0410955E-1,1.0789428E0,1.5407555E0,3.129721E-1,6.0266304E-1,1.4565647E-1,5.540904E-1,0E0,0E0,9.222316E-2,9.415841E-2,3.7466407E-2,1.5967648E-2,8.616026E-2,1.1907244E-1,0E0,6.539594E-2,2.1641287E-1,4.117149E-2,3.4608692E-3,0E0,3.715402E-3,2.405297E-3,0E0,0E0,0E0,0E0,5.94047E-2,7.712841E-4,1.5035844E-1,1.7786583E-1,0E0,6.005351E-2,0E0,0E0,6.651941E-2,4.9384683E-2,9.95602E-2,4.5584343E-2,1.2747365E-1,5.920376E-2,1.0810687E-1,4.4269726E-2,2.0551221E-1,3.4210652E-2,8.991429E-2,9.16934E-3,5.015292E-1,0E0,0E0,0E0,5.6268543E-1,0E0,1.0362291E0,0E0,1.3891321E-1,1.7454629E-1,6.757097E-1,4.391779E-2,8.5296154E-2,4.1250437E-1,0E0,0E0,0E0,2.144432E-2,0E0,0E0,0E0,2.710417E-3,0E0,0E0,5.513677E-2,1.5921865E-2,4.7007254E-3,0E0,4.9552985E-2,1.183603E-3,7.6636314E-2,9.1541745E-3,0E0,4.926063E-3,0E0,0E0,0E0,0E0,0E0,0E0,3.621138E-2,1.01379305E-2,0E0,0E0,7.484496E-2,1.3748221E-1,0E0,4.9455553E-2,3.8789805E-2,1.1098184E-2,3.5729E-2,1.4255739E-2,3.1140447E-2,0E0,0E0,0E0,1.4959944E-2,2.7786583E-2,6.9196105E-2,1.3548732E-1,3.5577E-2,0E0,0E0,1.47998575E-2,2.4196588E-2,0E0,3.6797255E-2,1.7246655E-1,2.3476034E-3,2.5368482E-2,2.3670956E-2,2.8111786E-3,7.953644E-3,4.564306E-3,4.8462582E-1,0E0,5.457654E-1,0E0,6.424017E-1,7.059782E-2,1.21173024E-1,6.93143E-1,0E0,0E0,0E0,1.613009E-2,0E0,0E0,9.3477726E-2,1.13007784E-1,0E0,3.4285985E-2,0E0,2.7413648E-3,1.0588169E-3,0E0,4.8316866E-2,0E0,0E0,0E0,0E0,0E0,1.139502E-2,1.2039658E-2,0E0,0E0,0E0,0E0,0E0,0E0,0E0,0E0,0E0,0E0,0E0,0E0,3.76091E-2,8.468825E-2,0E0,3.5811067E-3,6.835848E-3,0E0,2.600322E-2,0E0,0E0,0E0,9.324133E-3,0E0,0E0,0E0,1.9280747E-2,0E0,0E0,0E0,7.91274E-4,8.636844E-3,0E0,5.4569382E-2,4.8172772E-2,5.5800214E-2,8.303267E-2,2.497673E-3,2.5308505E-4,0E0,1.2010917E-2,0E0,1.9848078E-2,0E0,0E0,1.0279903E-2,0E0,0E0,1.8332124E-2,1.9278035E-2,0E0,0E0,0E0,0E0,6.1900616E-3,0E0,0E0,0E0,0E0,0E0,0E0,0E0,0E0,0E0,0E0,0E0,0E0,0E0,0E0,0E0,0E0,0E0,0E0,0E0,0E0,0E0,0E0,0E0,0E0,0E0,0E0,0E0,0E0,0E0,0E0,0E0,0E0,0E0,0E0,0E0,0E0,0E0,0E0,0E0,0E0,0E0,0E0,0E0,0E0,0E0,0E0,0E0,0E0,0E0,0E0,0E0,0E0,0E0,0E0,0E0,0E0,0E0,0E0,0E0,0E0,0E0,0E0,0E0,0E0,0E0,0E0,0E0,0E0,0E0,0E0,0E0,0E0,0E0,0E0,0E0],"parents":[2147483647,0,0,1,1,2,2,3,3,4,4,5,5,6,6,7,7,8,8,9,9,10,10,11,11,13,13,14,14,15,15,16,16,17,17,18,18,19,19,20,20,21,21,22,22,23,23,24,24,25,25,26,26,27,27,28,28,29,29,30,30,33,33,34,34,37,37,38,38,40,40,41,41,42,42,44,44,45,45,46,46,47,47,48,48,49,49,50,50,53,53,57,57,59,59,60,60,61,61,62,62,63,63,64,64,65,65,66,66,67,67,68,68,71,71,72,72,73,73,74,74,77,77,78,78,79,79,83,83,84,84,85,85,86,86,89,89,90,90,91,91,92,92,93,93,94,94,95,95,96,96,97,97,98,98,101,101,102,102,103,103,104,104,105,105,106,106,108,108,109,109,110,110,111,111,113,113,114,114,119,119,120,120,121,121,122,122,124,124,127,127,128,128,129,129,130,130,131,131,132,132,133,133,134,134,135,135,136,136,137,137,138,138,139,139,143,143,145,145,147,147,148,148,149,149,150,150,151,151,152,152,156,156,160,160,163,163,164,164,165,165,167,167,168,168,169,169,170,170,172,172,179,179,180,180,183,183,184,184,186,186,187,187,188,188,189,189,190,190,191,191,195,195,196,196,197,197,198,198,199,199,202,202,203,203,205,205,206,206,207,207,208,208,209,209,210,210,211,211,212,212,213,213,215,215,217,217,218,218,219,219,220,220,224,224,227,227,228,228,230,230,232,232,233,233,235,235,241,241,242,242,255,255,256,256,258,258,259,259,261,261,265,265,269,269,273,273,274,274,276,276,277,277,278,278,279,279,280,280,281,281,283,283,285,285,288,288,291,291,292,292,297,297],"right_children":[2,4,6,8,10,12,14,16,18,20,22,24,-1,26,28,30,32,34,36,38,40,42,44,46,48,50,52,54,56,58,60,-1,-1,62,64,-1,-1,66,68,-1,70,72,74,-1,76,78,80,82,84,86,88,-1,-1,90,-1,-1,-1,92,-1,94,96,98,100,102,104,106,108,110,112,-1,-1,114,116,118,120,-1,-1,122,124,126,-1,-1,-1,128,130,132,134,-1,-1,136,138,140,142,144,146,148,150,152,154,-1,-1,156,158,160,162,164,166,-1,168,170,172,174,-1,176,178,-1,-1,-1,-1,180,182,184,186,-1,188,-1,-1,190,192,194,196,198,200,202,204,206,208,210,212,214,-1,-1,-1,216,-1,218,-1,220,222,224,226,228,230,-1,-1,-1,232,-1,-1,-1,234,-1,-1,236,238,240,-1,242,244,246,248,-1,250,-1,-1,-1,-1,-1,-1,252,254,-1,-1,256,258,-1,260,262,264,266,268,270,-1,-1,-1,272,274,276,278,280,-1,-1,282,284,-1,286,288,290,292,294,296,298,300,302,-1,304,-1,306,308,310,312,-1,-1,-1,314,-1,-1,316,318,-1,320,-1,322,324,-1,326,-1,-1,-1,-1,-1,328,330,-1,-1,-1,-1,-1,-1,-1,-1,-1,-1,-1,-1,332,334,-1,336,338,-1,340,-1,-1,-1,342,-1,-1,-1,344,-1,-1,-1,346,348,-1,350,352,354,356,358,360,-1,362,-1,364,-1,-1,366,-1,-1,368,370,-1,-1,-1,-1,372,-1,-1,-1,-1,-1,-1,-1,-1,-1,-1,-1,-1,-1,-1,-1,-1,-1,-1,-1,-1,-1,-1,-1,-1,-1,-1,-1,-1,-1,-1,-1,-1,-1,-1,-1,-1,-1,-1,-1,-1,-1,-1,-1,-1,-1,-1,-1,-1,-1,-1,-1,-1,-1,-1,-1,-1,-1,-1,-1,-1,-1,-1,-1,-1,-1,-1,-1,-1,-1,-1,-1,-1,-1,-1,-1],"split_conditions":[5.5E0,8.35E1,4.5E0,6.15E1,2E0,5.503E3,3.45E1,4.535E3,7.0075E3,9.93E2,2.7295E3,3.25E1,-3.157558E-1,5.5795E3,9.626E3,8.5E0,1.176E3,2.915E2,5.3E3,1.3E1,2.32E2,3.3E2,5.8E1,1.2275E3,6.5E0,3.3895E3,4.446E3,7.274E3,8.415E2,3.023E3,5.55E1,-3.7061256E-1,3.424419E-2,7.225E2,4.9E1,2.1398207E-2,-2.2334692E-1,7E0,2.37E2,-1.1262791E-1,2.535E2,7.8E2,1.35E2,-1.4957467E-1,5.73E2,1.19E2,1.901E3,3E0,7.4E2,9.835E2,1.0415E3,2.0111671E-1,-1.7656198E-2,2.725E2,-1.0174979E-1,-1.3763973E-1,-1.5694037E-2,2.2065E3,-3.0012673E-1,2.085E2,4.485E2,4.3095E3,1.227E3,9.73E2,2.2075E3,4.45E2,1.165E2,7.5E0,1.011E3,3.0288765E-2,-3.772601E-2,4.45E1,3.2025E3,1.765E2,2.655E2,-6.4202905E-2,-3.2686315E-2,4.18E2,8.05E1,6.9E1,-3.157558E-1,3.0807823E-2,-3.157558E-1,2.36E2,1.5E0,2.215E2,2.6E1,8.907936E-2,-2.1043923E-2,5E-1,5.8E1,3.5955E3,1.65E1,8.065E2,4.2E1,3.2885E3,4.525E2,4.4225E3,1.3965E3,-2.670386E-2,-1.0763804E-1,1.8E1,2.5825E3,2E0,1.5155E3,6.67E2,6.9E1,-1.2412417E-1,9.935E2,3.175E2,2.2E1,3.02E2,-3.8668778E-2,1.805E2,3.525E2,-4.094667E-2,1.2311697E-2,-1.3866954E-1,-2.5550669E-2,4.5E1,4.211E3,7.88E2,2.19E2,6.406365E-2,5.13E2,3.653007E-2,-2.868963E-2,2.37E2,2.889E3,2.277E3,2.4E1,9.425E2,4.2205E3,1.32E2,3.842E3,3.7325E3,1.65E1,3E0,8.26E3,2.6955E3,-3.157558E-1,-4.2100775E-1,4.5366317E-2,3.247E3,-4.2100775E-1,1.0205E3,5.9396528E-2,7.73E2,1.713E3,1.89E2,4.2E1,5.075E2,4.05E1,-2.9482174E-1,5.3343635E-2,6.376024E-2,7E0,-2.5009617E-1,-7.264623E-3,-2.670386E-2,1.2095E3,-4.2732034E-2,3.3648215E-2,4.395E2,1.2965E3,2.3E1,2.2144127E-1,1.885E2,2.6195E3,2.67E2,1.275E2,3.886102E-2,1.5315E3,5.7239883E-2,1.1901062E-1,-3.5544794E-2,5.0454815E-3,5.911597E-2,1.770586E-2,1E0,2.8735E3,-4.5438927E-2,-1.0390623E-2,6.45E2,5.7E1,9.973527E-2,4.0635E3,5.37E2,2.2405E3,2.9715E3,4E0,5.7615E3,6.4642705E-2,-2.76383E-1,-1.6538477E-2,1.0485E3,3.998E3,8.5E0,5.8E1,2E0,7.2041675E-2,-1.9725809E-1,1.3295E3,4.5985E3,-1.17694415E-1,2.6E3,3.03E2,7E0,4.9765E3,6.765E2,2.75E1,8.3645E3,7.665E2,4.5585E3,-3.157558E-1,8.17E2,-2.9362732E-1,1.6935E3,8.14E2,1.28E2,6.405E2,-3.157558E-1,2.224425E-2,5.5135783E-2,2.89E2,4.7019474E-2,-4.888454E-2,2.575E2,5E0,-3.157558E-1,4.72E2,-1.1447687E-1,2.4555E3,1.5E0,3.84781E-2,5.765E2,-2.8344717E-2,-4.54537E-2,3.0288765E-2,3.0288765E-2,-1.8208642E-2,1.543E3,7.9E1,7.560648E-2,2.7377795E-2,-2.4756666E-1,-1.8208642E-2,3.0288765E-2,-2.8306972E-2,-4.287207E-2,4.5478554E-3,-2.8076764E-2,5.716786E-2,-3.8959585E-2,1.9062039E-2,2.936E3,2.7765E3,4.369167E-2,5.725E2,2.555E2,4.6073172E-2,1.775E2,3.884832E-2,-9.7199224E-2,-2.20513E-2,4.055E2,-3.2262594E-2,2.5995212E-2,-3.0284615E-2,5E-1,6.066667E-2,5.2876335E-2,-2.4009751E-2,3.79E2,2.063E3,-1.4293908E-1,3.795E3,5.91E2,3.39E2,4.855E2,2.35E1,9.56E2,2.224425E-2,1.1445E3,3.53614E-2,1.9495E3,5.5889823E-2,2.3425715E-1,1E1,-2.6335891E-2,-1.1083801E-1,4.5665E3,9.545E2,-1.5184408E-1,-1.5694037E-2,-4.639137E-2,-3.1054089E-2,9.173E3,1.7921012E-2,3.2593746E-2,-1.5694037E-2,3.7306357E-2,-3.087872E-1,3.510872E-2,-1.1410407E-1,-5.196879E-1,3.424419E-2,6.1560377E-2,-1.08351864E-1,4.3795813E-2,-2.0920018E-2,-3.337456E-1,4.657903E-2,-4.2900768E-1,-1.8201253E-1,7.214048E-2,1.4915101E-2,4.582857E-2,-9.369481E-2,-3.5606746E-2,5.470409E-2,-3.0684175E-2,4.5478554E-3,2.7207745E-2,7.08175E-2,6.85214E-2,-3.102465E-2,4.993336E-2,-1.7558336E-2,-4.797503E-2,-6.961756E-3,5.877948E-2,-8.681845E-3,5.3080402E-2,-9.1701165E-2,-4.0913552E-2,-1.643101E-1,-9.536838E-2,-3.5923503E-2,3.2782177E-3,-3.9643064E-2,6.722652E-2,3.2218654E-2,-4.632833E-2,-2.1502579E-2,-5.014376E-2,-3.198562E-2,4.7451336E-2,-1.6055427E-2,-1.6140332E-2,6.910737E-2,3.8500663E-2,-3.730344E-2,1.4346309E-1,-1.7656198E-2,4.6426572E-2,-3.0022841E-2,-5.4958615E-2,-3.2740552E-2,-5.806625E-2,-1.5539251E-2,9.267914E-3,-3.3545922E-2,-2.8634062E-2,2.4354905E-2,3.724764E-2,-2.1147113E-2,-3.1751055E-2,9.657675E-3,5.878973E-2,-2.2233488E-2,-3.1487826E-2,-7.638973E-2],"split_indices":[125,127,383,69,244,68,254,335,257,383,102,123,0,143,265,261,13,119,1,225,255,127,31,122,125,93,0,31,0,336,264,0,0,126,168,0,0,336,362,0,255,0,383,0,76,124,18,0,182,238,13,0,0,126,0,0,0,259,0,145,90,187,3,316,345,111,127,78,54,0,0,246,1,5,374,0,0,126,380,12,0,0,0,125,78,127,383,0,0,173,125,64,4,140,67,68,23,69,56,0,0,232,2,22,0,174,20,0,166,22,206,72,0,0,10,0,0,0,0,66,19,242,381,0,202,0,0,124,210,1,27,57,101,46,363,315,383,373,11,359,0,0,0,46,0,266,0,362,0,7,254,8,7,0,0,0,53,0,0,0,341,0,0,124,0,1,0,255,27,55,2,0,13,0,0,0,0,0,0,58,14,0,0,120,6,0,19,63,27,97,33,111,0,0,0,3,23,125,255,380,0,0,4,73,0,98,24,0,182,0,125,33,0,112,0,6,0,2,0,379,106,0,0,0,1,0,0,124,253,0,7,0,2,29,0,298,0,0,0,0,0,0,12,0,0,0,0,0,0,0,0,0,0,0,0,51,61,0,0,63,0,125,0,0,0,38,0,0,0,39,0,0,0,61,0,0,355,374,11,127,125,12,0,366,0,43,0,0,0,0,0,241,3,0,0,0,0,272,0,0,0,0,0,0,0,0,0,0,0,0,0,0,0,0,0,0,0,0,0,0,0,0,0,0,0,0,0,0,0,0,0,0,0,0,0,0,0,0,0,0,0,0,0,0,0,0,0,0,0,0,0,0,0,0,0,0,0,0,0,0,0,0,0,0,0,0,0,0,0,0,0,0,0],"split_type":[0,0,0,0,0,0,0,0,0,0,0,0,0,0,0,0,0,0,0,0,0,0,0,0,0,0,0,0,0,0,0,0,0,0,0,0,0,0,0,0,0,0,0,0,0,0,0,0,0,0,0,0,0,0,0,0,0,0,0,0,0,0,0,0,0,0,0,0,0,0,0,0,0,0,0,0,0,0,0,0,0,0,0,0,0,0,0,0,0,0,0,0,0,0,0,0,0,0,0,0,0,0,0,0,0,0,0,0,0,0,0,0,0,0,0,0,0,0,0,0,0,0,0,0,0,0,0,0,0,0,0,0,0,0,0,0,0,0,0,0,0,0,0,0,0,0,0,0,0,0,0,0,0,0,0,0,0,0,0,0,0,0,0,0,0,0,0,0,0,0,0,0,0,0,0,0,0,0,0,0,0,0,0,0,0,0,0,0,0,0,0,0,0,0,0,0,0,0,0,0,0,0,0,0,0,0,0,0,0,0,0,0,0,0,0,0,0,0,0,0,0,0,0,0,0,0,0,0,0,0,0,0,0,0,0,0,0,0,0,0,0,0,0,0,0,0,0,0,0,0,0,0,0,0,0,0,0,0,0,0,0,0,0,0,0,0,0,0,0,0,0,0,0,0,0,0,0,0,0,0,0,0,0,0,0,0,0,0,0,0,0,0,0,0,0,0,0,0,0,0,0,0,0,0,0,0,0,0,0,0,0,0,0,0,0,0,0,0,0,0,0,0,0,0,0,0,0,0,0,0,0,0,0,0,0,0,0,0,0,0,0,0,0,0,0,0,0,0,0,0,0,0,0,0,0,0,0,0,0,0,0,0,0,0,0,0,0,0,0,0,0,0,0],"sum_hessian":[4.381E3,1.614E3,2.767E3,1.35E3,2.64E2,3.27E2,2.44E3,9.49E2,4.01E2,1.53E2,1.11E2,3.26E2,1E0,3.05E2,2.135E3,9.46E2,3E0,3.98E2,3E0,1.15E2,3.8E1,9.9E1,1.2E1,1.65E2,1.61E2,3.03E2,2E0,2.133E3,2E0,6.19E2,3.27E2,2E0,1E0,3.46E2,5.2E1,1E0,2E0,8.1E1,3.4E1,1E0,3.7E1,2.1E1,7.8E1,3E0,9E0,1.58E2,7E0,2E0,1.59E2,2.96E2,7E0,1E0,1E0,2.131E3,2E0,1E0,1E0,6.16E2,3E0,1.2E2,2.07E2,3.42E2,4E0,1.8E1,3.4E1,5.2E1,2.9E1,2.4E1,1E1,1E0,3.6E1,1.1E1,1E1,4E0,7.4E1,4E0,5E0,1.15E2,4.3E1,6E0,1E0,1E0,1E0,1.12E2,4.7E1,2.25E2,7.1E1,5E0,2E0,2.2E2,1.911E3,6.11E2,5E0,1.01E2,1.9E1,1.85E2,2.2E1,3.32E2,1E1,2E0,2E0,1.3E1,5E0,2.9E1,5E0,4.7E1,5E0,2E0,2.7E1,1E1,1.4E1,8E0,2E0,3E0,8E0,9E0,1E0,2E0,2E0,3.2E1,4.2E1,1E2,1.5E1,3E0,4E1,2E0,4E0,3.5E1,7.7E1,5E0,4.2E1,7.3E1,1.52E2,9E0,6.2E1,5.6E1,1.64E2,5.2E1,1.859E3,6.1E2,1E0,2E0,3E0,9.9E1,2E0,1.4E1,5E0,1.83E2,2E0,8E0,1.4E1,3.22E2,1E1,2E0,8E0,5E0,8E0,4E0,1E0,2E0,2.7E1,4E0,1E0,4.1E1,6E0,2E0,3E0,2.1E1,6E0,6E0,4E0,4E0,1E1,5E0,3E0,1E0,2E0,6E0,2E0,9E0,2.3E1,4.1E1,1E0,9.4E1,6E0,3E0,1.2E1,3.3E1,7E0,2.4E1,1.1E1,7.5E1,2E0,4E0,1E0,5E0,3.7E1,5.1E1,2.2E1,1.5E2,2E0,3E0,6E0,6E1,2E0,5E1,6E0,3E0,1.61E2,5E0,4.7E1,1.857E3,2E0,6.09E2,1E0,9.7E1,2E0,1.1E1,3E0,1.71E2,1.2E1,1E0,1E0,3E0,5E0,1.2E1,2E0,1.73E2,1.49E2,1E0,9E0,1E0,7E0,2E1,7E0,3.8E1,3E0,5E0,1E0,1E0,1E0,6E0,1.5E1,4E0,2E0,5E0,1E0,1E0,3E0,9E0,1E0,3E0,6E0,2.2E1,1E0,8.8E1,6E0,3E0,3E0,1.1E1,1E0,2.8E1,5E0,5E0,2E0,2.2E1,2E0,2E0,9E0,7.4E1,1E0,4E0,1E0,3.4E1,3E0,1E0,5E1,1.5E1,7E0,3.1E1,1.19E2,5E0,1E0,5.8E1,2E0,4.8E1,2E0,2E0,4E0,1E0,2E0,1.57E2,4E0,4E0,1E0,2E1,2.7E1,1.856E3,1E0,1E0,1E0,6.08E2,1E0,8.4E1,1.3E1,1E1,1E0,2E0,1E0,1.56E2,1.5E1,2E0,1E1,2E0,3E0,1.57E2,1.6E1,1.47E2,2E0,2E0,7E0,6E0,1E0,2E0,1.8E1,3.6E1,2E0,5E0,1E0,9E0,6E0,8.4E1,4E0,3E0,3E0,1E0,2E0,8E0,3E0,1.1E1,1.7E1,1.2E1,1E1,2.4E1,5E1,5E0,2.9E1,2E0,1E0,4.7E1,3E0,9E0,6E0,6E0,1E0,9E0,2.2E1,4E0,1.15E2,4E0,1E0,3E0,5.5E1,4.5E1,3E0,2E0,2E0,1.52E2,5E0,2E0,2E0,1.855E3,1E0],"tree_param":{"num_deleted":"0","num_feature":"384","num_nodes":"373","size_leaf_vector":"0"}},{"base_weights":[-6.349331E-3,5.3701494E-3,-1.2868534E-2,9.201202E-3,-2.5155716E-2,-8.7319486E-2,-1.2678489E-2,4.8260526E-3,3.341646E-2,-2.2688559E-1,-2.2692408E-2,-2.9745018E-1,-2.7226694E-3,-5.434194E-3,-1.380566E-2,6.2570935E-3,-1.0683066E-1,5.0462812E-2,1.4013946E-2,-4.2465743E-2,-4.1907346E-3,1.0569528E-2,-1.9538043E-2,4.460028E-3,-3.1734824E-2,-7.784328E-2,-1.3535561E-2,6.7653786E-3,-2.932018E-1,-4.5892507E-1,1.9436704E-2,4.3288577E-2,1.7118853E-1,-7.450656E-2,2.0388994E-2,-3.2079328E-2,-1.5213354E-1,1.5944093E-2,-2.1774549E-2,2.387762E-3,1.2500863E-2,5.874932E-3,-1.9302669E-1,-2.6114395E-2,-3.0531943E-1,-1.9568695E-1,-2.3921492E-2,-1.3429076E-2,-9.492091E-2,7.263428E-3,-2.8673095E-1,3.1537388E-2,-1.2649011E-2,5.7002127E-2,1.6526725E-2,2.4054755E-1,2.1646997E-2,-2.3039095E-1,3.392539E-2,1.709197E-2,1.6515458E-1,-2.4520203E-2,-1.0524755E-1,-3.332271E-1,-1.3050713E-2,5.6601588E-2,-1.2816635E-2,-3.7243024E-2,-1.3146106E-2,2.0321324E-2,-1.0038719E-2,-6.431908E-2,-4.626517E-3,-1.3195226E-2,-4.950268E-2,-9.019383E-3,-1.4541102E-2,-1.2780833E-1,-1.4573034E-2,1.32289715E-2,-1.7718084E-2,4.662681E-2,1.23295784E-1,2.0009033E-2,-5.6159332E-2,2.387762E-3,3.0082732E-2,4.7006257E-2,9.3885055E-3,1.1192882E-2,-4.1511912E-2,-1.9019341E-1,-3.323052E-2,-2.8890686E-2,2.515459E-2,8.301512E-2,3.235305E-3,4.5191852E-4,-6.863494E-2,-2.0235132E-2,-5.3847507E-2,2.750311E-3,-1.4827425E-2,3.183018E-2,-7.718993E-3,-3.1647466E-2,1.0149666E-2,-1.9464895E-1,-2.1653986E-2,3.2060552E-2,-1.5825875E-2,-2.1183357E-2,-2.5493063E-3,-1.4429744E-2,-6.458029E-2,1.4732262E-2,-9.5216095E-2,-1.3412491E-2,-3.3186114E-1,5.0419163E-2,-4.6026662E-2,1.8412551E-1,3.780689E-2,2.6566975E-2,-1.8301494E-2,6.5259315E-2,-3.418576E-3,1.7613512E-2,-1.621354E-2,2.6761403E-2,-1.7344156E-1,-5.310182E-2,-5.3320327E-3,-6.2873457E-3,-3.432935E-2,3.7255686E-2,1.1037819E-1,1.6230568E-2,-1.0568785E-2,1.6636172E-2,-1.203227E-2,-7.925089E-2,-1.3085589E-2,-2.4294946E-2,-1.1316328E-2,-7.334099E-2,-1.6018778E-2,-6.163071E-4,6.4250827E-3,-2.4590405E-2,-1.13620795E-2,3.5416435E-2,-1.6698392E-1,-1.3817635E-2,1.24212E-1,-1.8565621E-2,-8.154042E-2,7.535998E-2,-8.878805E-4,-2.67507E-1,4.0236108E-2,-6.734325E-2,-1.3792022E-2,7.140524E-2,-2.8726224E-2,-3.191241E-2,-1.2614361E-2,-5.3616956E-2,-1.2680713E-2,1.4194239E-2,-1.3160442E-2,-2.6264539E-2,-1.4113609E-2,-1.2875105E-2,-7.752365E-2,1.6009998E-2,-1.04292676E-1,-1.9944916E-3,-4.0528995E-1,2.6217378E-3,-7.6895036E-2,-2.8058814E-2,-4.697329E-1,5.373663E-2,-1.0288939E-2,4.3124735E-2,8.26776E-3,2.2973621E-2,6.8980455E-2,4.4653166E-2,9.3419746E-2,1.3294816E-2,-2.4563573E-2,-2.7593087E-2,2.1473132E-2,1.3416844E-3,-4.0519685E-2,3.5440065E-2,-2.332225E-2,-6.3031755E-2,-1.5205167E-2,-1.2097709E-2,2.125279E-2,1.5817642E-2,4.4020295E-2,1.9405505E-2,3.3528805E-3,-1.2021664E-2,-3.1050742E-3,-1.3495951E-2,2.5856197E-2,-1.2665973E-2,-2.2139195E-3,-2.8380765E-2,-1.00763375E-2,-7.992138E-4,-1.2286012E-2,3.9517336E-2,-7.493496E-2,-3.7888193E-3,-7.3359065E-2,-9.7412385E-2,-9.965633E-3,-1.0886274E-1,-1.6052153E-2,2.0382512E-2,1.08614534E-1,-1.0241831E-2,6.1193023E-2,-3.049508E-1,-1.1593162E-1,6.476557E-2,-4.4114105E-3,-9.0216756E-2,6.386312E-4,2.7180165E-2,-1.6518116E-2,1.0522821E-1,1.6536638E-2,-4.9730163E-2,-1.0378616E-2,-7.433531E-4,-4.2178202E-2,-2.2025598E-2,-1.0887316E-2,-1.5304683E-1,-2.329353E-2,2.4868589E-2,-1.5858186E-2,1.1296592E-2,1.8675125E-1,-1.48108415E-2,3.3751942E-2,-4.4861075E-2,-1.4023805E-3,-1.40456185E-2,-7.093333E-2,2.1380657E-2,-1.1923956E-2,-3.9017564E-1,1.5950024E-2,3.4420364E-2,-1.8307152E-1,8.011291E-3,-3.1623578E-1,-5.170393E-1,-2.1343417E-2,5.8802664E-2,2.3539413E-2,-2.0304978E-2,9.879589E-3,2.4579396E-2,1.3956768E-2,4.7645025E-2,8.863211E-3,-3.8922966E-2,8.863211E-3,1.7864468E-2,3.3955682E-2,1.4499217E-2,-1.012787E-2,-5.1542252E-2,-1.6611552E-2,3.8321644E-2,-9.65496E-3,-4.8090145E-4,-3.0775731E-2,-7.465196E-2,-6.045643E-3,-6.438006E-3,-2.4554616E-2,-1.3600872E-2,1.4669616E-3,3.3528805E-3,2.8526306E-2,-2.2603776E-3,1.0615569E-3,3.3778325E-2,1.22842304E-1,-1.0199412E-2,5.1648423E-2,-9.631439E-2,-1.8298933E-2,-1.64532E-1,2.1780294E-3,1.2812169E-2,-3.5281166E-2,-5.027556E-2,-1.2977707E-1,2.7579388E-2,6.3914657E-3,-6.467375E-3,-1.0325676E-1,7.942856E-2,4.3242685E-3,-2.4830107E-2,-1.1906225E-2,2.8304419E-2,-7.433531E-4,4.6269E-3,-5.7419296E-3,1.6133512E-3,-1.1587703E-2,-1.7563944E-1,-5.6846008E-2,-1.6728504E-2,-5.8501564E-2,5.7871444E-3,7.382339E-2,-5.2956477E-2,-1.3230922E-2,8.809463E-3,1.5860671E-1,-1.951539E-2,-1.3917316E-2,8.4420204E-2,-3.3994012E-3,-6.2258214E-2,-2.3016918E-2,4.348231E-2,-2.0951785E-2,-1.4105658E-2,1.127827E-2],"categories":[],"categories_nodes":[],"categories_segments":[],"categories_sizes":[],"default_left":[1,1,1,1,1,1,1,1,1,0,1,0,1,1,1,1,1,1,1,1,1,1,0,1,1,1,1,1,0,0,1,1,1,1,1,1,1,1,1,0,0,1,0,1,0,0,1,1,1,1,0,0,0,1,1,0,1,0,0,1,0,1,1,0,1,1,1,1,1,1,1,1,1,0,0,1,1,0,0,1,1,1,1,1,0,0,0,1,1,1,1,0,0,1,0,1,1,1,1,1,1,1,1,1,1,1,1,1,1,1,1,1,1,1,1,1,1,1,1,1,0,0,1,1,0,1,1,1,1,1,0,1,1,0,0,1,0,1,1,1,1,0,0,0,0,0,0,0,0,1,1,1,0,1,0,1,1,1,1,1,1,1,1,1,1,1,1,1,1,1,1,1,1,0,0,1,1,1,0,1,1,0,0,1,1,0,0,1,0,1,0,0,0,1,1,1,1,1,1,1,1,1,1,0,0,0,0,0,0,0,0,0,0,0,0,1,0,1,0,1,1,1,1,1,0,1,0,1,1,0,0,0,0,0,0,0,1,0,1,0,0,1,0,0,1,1,1,1,1,1,0,1,1,1,1,1,0,0,0,0,0,0,0,0,0,0,0,0,0,0,0,0,0,0,0,0,0,0,0,0,0,0,0,0,0,0,0,0,0,0,0,0,0,0,0,0,0,0,0,0,0,0,0,0,0,0,0,0,0,0,0,0,0,0,0,0,0,0,0,0,0,0,0,0,0,0,0,0,0,0,0,0,0,0,0,0,0,0,0,0,0,0,0],"id":3,"left_children":[1,3,5,7,9,11,13,15,17,-1,19,-1,21,23,25,27,29,31,33,35,37,39,-1,41,43,45,47,49,-1,-1,51,53,55,57,59,61,63,65,67,-1,-1,69,-1,71,-1,-1,73,75,77,79,-1,-1,-1,81,83,-1,85,-1,-1,87,-1,89,91,-1,93,95,97,99,101,103,105,107,109,-1,-1,111,113,-1,-1,115,117,119,121,123,-1,-1,-1,125,127,129,131,-1,-1,133,-1,135,137,139,141,143,145,147,149,151,153,155,157,159,161,163,165,167,169,171,173,175,177,179,181,183,-1,-1,185,187,-1,189,191,193,195,197,-1,199,201,-1,-1,203,-1,205,207,209,211,-1,-1,-1,-1,-1,-1,-1,-1,213,215,217,-1,219,-1,221,223,225,227,229,231,233,235,237,239,241,243,245,247,249,251,253,255,-1,-1,257,259,261,-1,263,265,-1,-1,267,269,-1,-1,271,-1,273,-1,-1,-1,275,277,279,281,283,285,287,289,291,293,-1,-1,-1,-1,-1,-1,-1,-1,-1,-1,-1,-1,295,-1,297,-1,299,301,303,305,307,-1,309,-1,311,313,-1,-1,-1,-1,-1,-1,-1,315,-1,317,-1,-1,319,-1,-1,321,323,325,327,329,331,-1,333,335,337,339,341,-1,-1,-1,-1,-1,-1,-1,-1,-1,-1,-1,-1,-1,-1,-1,-1,-1,-1,-1,-1,-1,-1,-1,-1,-1,-1,-1,-1,-1,-1,-1,-1,-1,-1,-1,-1,-1,-1,-1,-1,-1,-1,-1,-1,-1,-1,-1,-1,-1,-1,-1,-1,-1,-1,-1,-1,-1,-1,-1,-1,-1,-1,-1,-1,-1,-1,-1,-1,-1,-1,-1,-1,-1,-1,-1,-1,-1,-1,-1,-1,-1,-1,-1,-1,-1,-1,-1],"loss_changes":[3.3486122E-1,1.8348615E-1,3.8736492E-2,1.4742067E-1,8.18129E-2,1.2362486E-1,2.2870243E-2,1.8937492E-1,6.974091E-2,0E0,6.347816E-2,0E0,1.5475875E-3,9.902676E-2,4.0994257E-2,1.7961335E-1,6.757905E-1,9.046042E-2,5.8515687E-2,9.08003E-2,3.2565463E-2,3.335782E-5,0E0,7.8534655E-2,1.5194365E-1,5.886229E-2,1.9714952E-2,1.7252341E-1,0E0,0E0,5.0580255E-3,3.8693935E-2,5.702518E-2,1.2613605E-1,4.2520247E-2,4.056014E-2,1.7196018E-1,5.1007025E-2,6.0503725E-3,0E0,0E0,6.3654974E-2,0E0,8.425901E-2,0E0,0E0,1.5419256E-3,1.1735737E-2,6.0647465E-3,1.7385237E-1,0E0,0E0,0E0,4.308617E-2,1.0742072E-2,0E0,4.1556696E-4,0E0,0E0,2.1220388E-2,0E0,4.415614E-2,3.6502615E-2,0E0,3.7525883E-3,2.5104076E-2,1.9287352E-2,3.7113111E-3,9.227693E-4,4.703893E-2,5.7905637E-2,2.0152493E-1,2.8035786E-2,0E0,0E0,3.8509898E-2,9.82815E-3,0E0,0E0,1.5480876E-1,2.9987767E-1,2.4457246E-2,3.984119E-2,9.782028E-3,0E0,0E0,0E0,1.7710831E-2,1.6289428E-2,7.3629186E-2,2.0263612E-2,0E0,0E0,2.7588732E-4,0E0,1.0913208E-2,1.4272518E-3,4.645211E-3,1.9115005E-3,8.715736E-5,4.7244765E-3,5.3446034E-5,7.355646E-4,7.9352774E-2,3.6314115E-2,4.025843E-2,4.9730472E-2,1.6478279E-1,9.488215E-3,4.0317394E-2,2.2838768E-3,4.620123E-2,5.7218242E-2,6.8427026E-3,1.6788282E-3,1.4295432E-1,3.749642E-1,2.2719191E-1,1.1247715E-1,1.283811E-2,0E0,0E0,4.288773E-4,3.2922793E-3,0E0,3.9524026E-3,2.4469958E-3,1.0712368E-2,8.16166E-3,1.0823701E-2,0E0,1.29651055E-2,2.5953462E-3,0E0,0E0,1.7382298E-4,0E0,9.847898E-5,6.0473103E-6,3.127143E-3,5.2843476E-5,0E0,0E0,0E0,0E0,0E0,0E0,0E0,0E0,9.912066E-5,2.244059E-4,4.9120337E-2,0E0,2.4801515E-2,0E0,3.428945E-2,2.1513313E-2,1.6068678E-2,3.5468828E-2,4.3754578E-3,3.5712468E-3,6.277552E-3,3.35301E-3,1.6818061E-2,2.1814741E-3,2.5284467E-3,4.9161306E-4,1.0196191E-1,1.6620787E-2,6.0391508E-2,1.5752453E-2,2.259224E-2,6.2665045E-3,0E0,0E0,1.3827676E-1,3.499767E-1,7.883422E-2,0E0,3.1014487E-1,1.0892473E0,0E0,0E0,7.488668E-3,1.0086398E-3,0E0,0E0,1.0580197E-4,0E0,6.484967E-4,0E0,0E0,0E0,2.4102097E-3,1.8258467E-3,1.9577788E-3,1.2520356E-3,2.9688906E-3,6.661904E-4,1.8752195E-2,5.7963026E-4,2.442411E-4,2.9494043E-4,0E0,0E0,0E0,0E0,0E0,0E0,0E0,0E0,0E0,0E0,0E0,0E0,1.0556192E-5,0E0,4.3192685E-2,0E0,1.3676049E-2,5.821094E-3,3.378071E-2,2.8130371E-2,4.5031905E-3,0E0,3.271862E-4,0E0,1.7939478E-2,7.952789E-3,0E0,0E0,0E0,0E0,0E0,0E0,0E0,6.6271704E-4,0E0,1.0377758E-3,0E0,0E0,1.07098196E-4,0E0,0E0,3.6890712E-4,7.403016E-3,5.4933242E-3,9.848184E-3,1.1580184E-2,4.4033784E-2,0E0,5.3129345E-4,1.34637365E-2,9.207733E-3,2.021535E-2,3.0159652E-3,0E0,0E0,0E0,0E0,0E0,0E0,0E0,0E0,0E0,0E0,0E0,0E0,0E0,0E0,0E0,0E0,0E0,0E0,0E0,0E0,0E0,0E0,0E0,0E0,0E0,0E0,0E0,0E0,0E0,0E0,0E0,0E0,0E0,0E0,0E0,0E0,0E0,0E0,0E0,0E0,0E0,0E0,0E0,0E0,0E0,0E0,0E0,0E0,0E0,0E0,0E0,0E0,0E0,0E0,0E0,0E0,0E0,0E0,0E0,0E0,0E0,0E0,0E0,0E0,0E0,0E0,0E0,0E0,0E0,0E0,0E0,0E0,0E0,0E0,0E0,0E0,0E0,0E0,0E0,0E0,0E0,0E0,0E0,0E0,0E0,0E0,0E0],"parents":[2147483647,0,0,1,1,2,2,3,3,4,4,5,5,6,6,7,7,8,8,10,10,12,12,13,13,14,14,15,15,16,16,17,17,18,18,19,19,20,20,21,21,23,23,24,24,25,25,26,26,27,27,30,30,31,31,32,32,33,33,34,34,35,35,36,36,37,37,38,38,41,41,43,43,46,46,47,47,48,48,49,49,53,53,54,54,56,56,59,59,61,61,62,62,64,64,65,65,66,66,67,67,68,68,69,69,70,70,71,71,72,72,75,75,76,76,79,79,80,80,81,81,82,82,83,83,87,87,88,88,89,89,90,90,93,93,95,95,96,96,97,97,98,98,99,99,100,100,101,101,102,102,103,103,104,104,105,105,106,106,107,107,108,108,109,109,110,110,111,111,112,112,113,113,114,114,115,115,116,116,117,117,118,118,119,119,122,122,123,123,125,125,126,126,127,127,128,128,129,129,131,131,132,132,135,135,137,137,138,138,139,139,140,140,149,149,150,150,151,151,153,153,155,155,156,156,157,157,158,158,159,159,160,160,161,161,162,162,163,163,164,164,165,165,166,166,167,167,168,168,169,169,170,170,171,171,172,172,175,175,176,176,177,177,179,179,180,180,183,183,184,184,187,187,189,189,193,193,194,194,195,195,196,196,197,197,198,198,199,199,200,200,201,201,202,202,215,215,217,217,219,219,220,220,221,221,222,222,223,223,225,225,227,227,228,228,236,236,238,238,241,241,244,244,245,245,246,246,247,247,248,248,249,249,251,251,252,252,253,253,254,254,255,255],"right_children":[2,4,6,8,10,12,14,16,18,-1,20,-1,22,24,26,28,30,32,34,36,38,40,-1,42,44,46,48,50,-1,-1,52,54,56,58,60,62,64,66,68,-1,-1,70,-1,72,-1,-1,74,76,78,80,-1,-1,-1,82,84,-1,86,-1,-1,88,-1,90,92,-1,94,96,98,100,102,104,106,108,110,-1,-1,112,114,-1,-1,116,118,120,122,124,-1,-1,-1,126,128,130,132,-1,-1,134,-1,136,138,140,142,144,146,148,150,152,154,156,158,160,162,164,166,168,170,172,174,176,178,180,182,184,-1,-1,186,188,-1,190,192,194,196,198,-1,200,202,-1,-1,204,-1,206,208,210,212,-1,-1,-1,-1,-1,-1,-1,-1,214,216,218,-1,220,-1,222,224,226,228,230,232,234,236,238,240,242,244,246,248,250,252,254,256,-1,-1,258,260,262,-1,264,266,-1,-1,268,270,-1,-1,272,-1,274,-1,-1,-1,276,278,280,282,284,286,288,290,292,294,-1,-1,-1,-1,-1,-1,-1,-1,-1,-1,-1,-1,296,-1,298,-1,300,302,304,306,308,-1,310,-1,312,314,-1,-1,-1,-1,-1,-1,-1,316,-1,318,-1,-1,320,-1,-1,322,324,326,328,330,332,-1,334,336,338,340,342,-1,-1,-1,-1,-1,-1,-1,-1,-1,-1,-1,-1,-1,-1,-1,-1,-1,-1,-1,-1,-1,-1,-1,-1,-1,-1,-1,-1,-1,-1,-1,-1,-1,-1,-1,-1,-1,-1,-1,-1,-1,-1,-1,-1,-1,-1,-1,-1,-1,-1,-1,-1,-1,-1,-1,-1,-1,-1,-1,-1,-1,-1,-1,-1,-1,-1,-1,-1,-1,-1,-1,-1,-1,-1,-1,-1,-1,-1,-1,-1,-1,-1,-1,-1,-1,-1,-1],"split_conditions":[1.5E0,2.93E2,2.5E0,2.88E2,2.975E2,1.425E2,1.35E1,6.245E2,3.365E2,-1.5881991E-1,2E0,-2.0821513E-1,4.435E2,9.49E2,1.75E1,5.597E3,1.575E2,3.33E3,2E0,7.46E2,7.255E2,4.3E1,-1.367663E-2,5.417E3,4.75E3,7.5E0,9.626E3,4.8015E3,-2.0524126E-1,-3.2124755E-1,1.86E3,4E0,6.06E2,3E0,5.195E3,7.245E2,2.18E2,4E0,8.75E1,1.6714334E-3,8.7506035E-3,2.25E1,-1.3511868E-1,6.5E0,-2.137236E-1,-1.3698086E-1,3.2E2,3.255E2,8.415E2,1.5E0,-2.0071165E-1,2.207617E-2,-8.854307E-3,1.121E3,3.25E3,1.6838329E-1,1.1655E3,-1.6127366E-1,2.3747774E-2,2.37E2,1.156082E-1,5.59E2,1.77E2,-2.3325896E-1,2.195E3,9.8E2,1.8145E3,4.535E2,6.45E1,1.365E2,4.03E2,1.2E1,5E-1,-9.236658E-3,-3.4651875E-2,2.55E1,7.274E3,-8.9465834E-2,-1.0201124E-2,1.5835E3,3.7E3,2.684E3,8.3E1,1.015E2,-3.9311532E-2,1.6714334E-3,2.1057913E-2,1.7375E3,8.4E1,6.765E2,9.95E1,-1.331354E-1,-2.3261365E-2,1.145E2,1.7608212E-2,7.675E2,3.9E2,5.8E1,4.7495E3,6.85E1,7.405E2,3.7E2,1.05E1,2.8235E3,1.214E3,2.575E2,2.8E1,1.205E2,3.45E1,1.76E3,4.4E1,5E-1,3.135E2,1E0,2.0605E3,1.5945E3,1.602E3,9.71E2,1.25E1,6.455E2,-3.221866E-2,1.2888786E-1,1.155E2,3.3265E3,-1.2811046E-2,8.3E2,3.0665E3,1.25E1,1.935E3,5.31E2,-1.2140909E-1,1.05E1,4.07E2,-4.401142E-3,-2.4030546E-2,9.9E1,7.726473E-2,1.7945E3,5.345E2,2.68E2,2.3105E3,-5.547562E-2,-9.159912E-3,-1.7006462E-2,-7.921429E-3,-5.133869E-2,-1.1213144E-2,-4.3141496E-4,4.497558E-3,2.432E3,1.75E1,2.15E2,-1.1688874E-1,7.8E1,8.6948395E-2,1.625E2,2.605E2,1.375E2,1.9805E3,7E1,8.4E1,8.145E2,3.75E1,6.91E2,4.5E0,1.45E1,3.6E1,8.3E1,7.5E0,5.3325E3,4.754E3,4.78E2,9.9545E3,-9.012573E-3,-5.4266553E-2,3.675E2,1.7965E3,1.5725E3,-2.8370297E-1,4.025E2,1.137E3,-1.964117E-2,-3.2881305E-1,6.7E1,1.84E2,3.0187314E-2,5.787432E-3,1.143E3,4.828632E-2,4.616E3,6.539382E-2,9.306371E-3,-1.71945E-2,1.6075E3,2.9425E3,3.595E2,1.7835E3,9.71E2,2E0,9.45E1,3E2,3.29E2,2.45E2,1.107235E-2,3.0814206E-2,1.3583853E-2,2.3470162E-3,-8.415164E-3,-2.1735518E-3,-9.447166E-3,1.8099338E-2,-8.866181E-3,-1.5497437E-3,-1.9866535E-2,-7.0534362E-3,9.8E1,-8.600208E-3,1.1065E3,-5.245447E-2,1.7885E3,1.24E2,9.5E0,4.955E2,2.15E2,-1.12365065E-2,2E1,7.603017E-2,4.21E3,9.115E2,-2.1346556E-1,-8.115213E-2,4.53359E-2,-3.0879874E-3,-6.3151725E-2,4.4704182E-4,1.9026116E-2,3.845E2,7.365975E-2,3.07E2,-3.4811113E-2,-7.265031E-3,1.144E3,-2.9524742E-2,-1.5417919E-2,1.225E2,6.34E2,7.64E2,2.037E3,2.2E1,3.125E2,1.3072588E-1,1.515E2,3.5175E3,3.15E1,8E0,8.609E3,-4.965333E-2,1.496646E-2,-8.346769E-3,-2.7312294E-1,1.1165016E-2,2.4094254E-2,-1.2815006E-1,5.6079035E-3,-2.2136505E-1,-3.619275E-1,-1.4940392E-2,4.1161865E-2,1.6477589E-2,-1.4213485E-2,6.9157123E-3,1.7205577E-2,9.769738E-3,3.335152E-2,6.2042475E-3,-2.7246075E-2,6.2042475E-3,1.2505127E-2,2.3768976E-2,1.0149452E-2,-7.089509E-3,-3.6079574E-2,-1.1628086E-2,2.682515E-2,-6.7584715E-3,-3.36631E-4,-2.1543011E-2,-5.2256368E-2,-4.23195E-3,-4.5066043E-3,-1.718823E-2,-9.52061E-3,1.0268731E-3,2.3470162E-3,1.9968415E-2,-1.5822643E-3,7.4308977E-4,2.3644827E-2,8.598961E-2,-7.1395882E-3,3.6153894E-2,-6.742007E-2,-1.2809253E-2,-1.151724E-1,1.5246206E-3,8.968518E-3,-2.4696816E-2,-3.5192892E-2,-9.084395E-2,1.9305572E-2,4.4740257E-3,-4.5271623E-3,-7.227973E-2,5.559999E-2,3.026988E-3,-1.7381074E-2,-8.334357E-3,1.9813092E-2,-5.2034715E-4,3.23883E-3,-4.0193507E-3,1.1293459E-3,-8.111392E-3,-1.229476E-1,-3.9792206E-2,-1.1709953E-2,-4.0951096E-2,4.051001E-3,5.1676374E-2,-3.7069533E-2,-9.261645E-3,6.166624E-3,1.1102469E-1,-1.3660773E-2,-9.742121E-3,5.9094142E-2,-2.3795809E-3,-4.358075E-2,-1.6111843E-2,3.0437617E-2,-1.4666249E-2,-9.87396E-3,7.894789E-3],"split_indices":[126,380,126,226,380,66,124,98,319,0,175,0,19,126,124,68,97,353,66,60,124,4,0,208,114,82,265,240,0,0,76,69,0,7,115,84,58,381,248,0,0,164,0,16,0,0,10,124,0,114,0,0,0,339,88,0,0,0,0,306,0,124,107,0,0,277,305,98,10,383,331,127,332,0,0,252,31,0,0,229,85,78,112,127,0,0,0,86,383,0,346,0,0,0,0,303,37,127,1,96,10,0,181,51,85,369,322,18,255,126,328,308,127,125,3,359,48,130,6,41,0,0,0,65,0,84,3,297,178,351,0,381,14,0,0,22,0,0,0,61,40,0,0,0,0,0,0,0,0,19,2,255,0,163,0,36,255,47,48,69,0,2,255,5,1,31,255,127,127,143,262,334,272,0,0,186,359,9,0,252,130,0,0,54,2,0,0,47,0,24,0,0,0,1,141,32,11,37,0,51,100,59,7,0,0,0,0,0,0,0,0,0,0,0,0,0,0,299,0,259,0,1,161,8,0,6,0,222,42,0,0,0,0,0,0,0,255,0,0,0,0,0,0,0,127,57,215,12,126,127,0,126,6,2,111,357,0,0,0,0,0,0,0,0,0,0,0,0,0,0,0,0,0,0,0,0,0,0,0,0,0,0,0,0,0,0,0,0,0,0,0,0,0,0,0,0,0,0,0,0,0,0,0,0,0,0,0,0,0,0,0,0,0,0,0,0,0,0,0,0,0,0,0,0,0,0,0,0,0,0,0,0,0,0,0,0,0,0,0,0,0,0,0],"split_type":[0,0,0,0,0,0,0,0,0,0,0,0,0,0,0,0,0,0,0,0,0,0,0,0,0,0,0,0,0,0,0,0,0,0,0,0,0,0,0,0,0,0,0,0,0,0,0,0,0,0,0,0,0,0,0,0,0,0,0,0,0,0,0,0,0,0,0,0,0,0,0,0,0,0,0,0,0,0,0,0,0,0,0,0,0,0,0,0,0,0,0,0,0,0,0,0,0,0,0,0,0,0,0,0,0,0,0,0,0,0,0,0,0,0,0,0,0,0,0,0,0,0,0,0,0,0,0,0,0,0,0,0,0,0,0,0,0,0,0,0,0,0,0,0,0,0,0,0,0,0,0,0,0,0,0,0,0,0,0,0,0,0,0,0,0,0,0,0,0,0,0,0,0,0,0,0,0,0,0,0,0,0,0,0,0,0,0,0,0,0,0,0,0,0,0,0,0,0,0,0,0,0,0,0,0,0,0,0,0,0,0,0,0,0,0,0,0,0,0,0,0,0,0,0,0,0,0,0,0,0,0,0,0,0,0,0,0,0,0,0,0,0,0,0,0,0,0,0,0,0,0,0,0,0,0,0,0,0,0,0,0,0,0,0,0,0,0,0,0,0,0,0,0,0,0,0,0,0,0,0,0,0,0,0,0,0,0,0,0,0,0,0,0,0,0,0,0,0,0,0,0,0,0,0,0,0,0,0,0,0,0,0,0,0,0,0,0,0,0,0,0,0,0,0,0,0,0,0,0,0,0,0,0,0,0,0,0,0,0,0,0,0,0],"sum_hessian":[4.381E3,1.566E3,2.815E3,1.392E3,1.74E2,6E0,2.809E3,1.18E3,2.12E2,1E0,1.73E2,1E0,5E0,3.79E2,2.43E3,1.166E3,1.4E1,1.12E2,1E2,8.3E1,9E1,3E0,2E0,2.76E2,1.03E2,9E0,2.421E3,1.165E3,1E0,3E0,1.1E1,1.07E2,5E0,6E0,9.4E1,7.7E1,6E0,4.2E1,4.8E1,1E0,2E0,2.75E2,1E0,1.02E2,1E0,2E0,7E0,2.419E3,2E0,1.164E3,1E0,8E0,3E0,7E1,3.7E1,3E0,2E0,2E0,4E0,9.3E1,1E0,7.1E1,6E0,2E0,4E0,1.7E1,2.5E1,1.6E1,3.2E1,1.44E2,1.31E2,3.6E1,6.6E1,6E0,1E0,4.89E2,1.93E3,1E0,1E0,9.4E2,2.24E2,6.2E1,8E0,3.6E1,1E0,1E0,1E0,1.8E1,7.5E1,2.3E1,4.8E1,2E0,4E0,3E0,1E0,1.1E1,6E0,2.1E1,4E0,9E0,7E0,3E0,2.9E1,1.02E2,4.2E1,6.3E1,6.8E1,8E0,2.8E1,1.5E1,5.1E1,1.69E2,3.2E2,1.927E3,3E0,9.28E2,1.2E1,2.22E2,2E0,6E1,2E0,4E0,4E0,3.1E1,5E0,1.3E1,5E0,5.7E1,1.8E1,2.2E1,1E0,3.6E1,1.2E1,1E0,2E0,5E0,6E0,3E0,3E0,9E0,1.2E1,3E0,1E0,5E0,4E0,4E0,3E0,2E0,1E0,6E0,2.3E1,1.01E2,1E0,4.1E1,1E0,5.1E1,1.2E1,9E0,5.9E1,6E0,2E0,3E0,2.5E1,9E0,6E0,7E0,4.4E1,3.4E1,1.35E2,1.24E2,1.96E2,4.8E1,1.879E3,1E0,2E0,9.19E2,9E0,1E1,2E0,1.78E2,4.4E1,1E0,1E0,5.7E1,3E0,3E0,1E0,3E1,1E0,9E0,4E0,3E0,2E0,4E0,5.3E1,1.1E1,7E0,1.9E1,3E0,2.8E1,8E0,1E1,2E0,2E0,3E0,2E0,1E0,2E0,1E0,2E0,7E0,1.1E1,1E0,4E0,2E0,2E0,2.1E1,9.8E1,3E0,3.6E1,5E0,4E0,4.7E1,8E0,4E0,4E0,5E0,5.2E1,7E0,4E0,2E0,1E0,1E0,2E0,1E0,1E0,2.4E1,5E0,4E0,2E0,4E0,2E0,5E0,5E0,3.9E1,7E0,2.7E1,1E1,1.25E2,1.23E2,1E0,1.9E2,6E0,2.7E1,2.1E1,1.878E3,1E0,7.71E2,1.48E2,2E0,7E0,9E0,1E0,1.76E2,2E0,4E0,4E1,4.8E1,9E0,2E0,1E0,2.4E1,6E0,8E0,1E0,3E0,1E0,4.3E1,1E1,5E0,6E0,4E0,3E0,1.8E1,1E0,1E0,2E0,2.3E1,5E0,5E0,3E0,9E0,1E0,1E0,1E0,1E0,1E0,9.3E1,5E0,3.3E1,3E0,3E0,2E0,2E0,2E0,2.5E1,2.2E1,3E0,5E0,2E0,2E0,5.1E1,1E0,5E0,2E0,7E0,1.7E1,2E0,2E0,1E0,1E0,2E0,3.7E1,5E0,2E0,2.4E1,3E0,8E0,2E0,7E0,1.18E2,1.22E2,1E0,2.7E1,1.63E2,2E0,4E0,1.4E1,1.3E1,6E0,1.5E1,1.874E3,4E0],"tree_param":{"num_deleted":"0","num_feature":"384","num_nodes":"343","size_leaf_vector":"0"}},{"base_weights":[-2.8451944E-3,-4.741922E-3,5.516501E-4,-4.3651783E-3,-5.711707E-2,1.7293697E-2,-3.4462947E-3,-1.1295945E-3,-8.774143E-3,-4.1463664E-3,-2.1519992E-1,1.8908687E-2,-8.274143E-2,-3.3179787E-3,-8.307542E-2,3.781731E-3,-1.859352E-2,-3.0579403E-2,-1.7476743E-3,-2.9512739E-2,6.7684865E-3,-4.0963747E-2,-3.1770277E-1,2.6412789E-2,-1.6136203E-3,-1.3817288E-1,-3.4340348E-2,6.164674E-3,-4.188311E-3,5.7799458E-3,-3.5556644E-2,-4.0793683E-2,-1.2954246E-3,-6.232537E-2,1.1585179E-3,8.445765E-3,-6.6477456E-3,-7.510218E-3,-3.3135816E-2,2.2795761E-2,-4.094621E-3,-8.658147E-3,-5.2787475E-2,3.0750548E-2,-1.188946E-2,-1.1510093E-1,2.71645E-3,-3.9221797E-2,-9.847999E-3,3.630076E-2,4.6711223E-4,-4.26731E-3,4.376474E-2,9.08591E-3,-2.3214396E-2,-4.5062345E-1,-1.3848899E-2,-3.3412814E-2,-3.1106824E-1,2.4134383E-2,-6.835895E-3,-1.21222466E-1,-1.6315091E-2,1.21388316E-1,-5.193857E-4,3.529633E-2,3.3905949E-3,-3.8208805E-2,-5.391224E-3,2.8102443E-2,7.8451633E-4,7.137656E-5,-4.6999604E-3,4.280657E-2,1.8134708E-2,9.1663E-3,-2.6080042E-2,2.2783846E-2,-1.9543524E-1,5.640711E-2,-1.45117E-4,1.0090196E-2,1.1896254E-1,1.9024124E-2,-3.745372E-3,5.141106E-4,-4.9075135E-3,1.7917467E-2,-5.9062936E-3,-2.870541E-1,1.3307229E-4,2.5006696E-3,-1.5868686E-1,-2.6657837E-2,-2.766826E-1,3.9221775E-2,-5.575753E-3,-7.4255625E-3,4.493475E-2,-7.949568E-2,-3.627503E-1,9.547643E-3,-1.4261606E-1,2.3841616E-2,-7.976634E-3,7.095119E-2,1.5755229E-2,-2.247324E-2,7.7873124E-3,-2.2465333E-3,-1.6722368E-1,-5.117649E-3,-8.2305886E-2,3.8531095E-2,1.6820316E-1,2.451973E-2,3.5438605E-3,2.7696382E-2,-7.8031523E-3,-1.2666131E-2,-5.644828E-2,-1.2735526E-2,7.464612E-3,1.7071828E-3,3.0620933E-2,7.104394E-3,7.22814E-2,-4.992652E-3,4.4276685E-2,2.9732248E-2,-3.2908025E-3,-1.4794041E-2,-4.1442527E-3,2.1388954E-2,-6.657611E-2,-1.5974427E-2,5.9617875E-4,-5.337663E-1,-3.3618223E-2,1.9677348E-2,-1.2898373E-2,2.5456008E-2,-1.9724146E-2,-3.1139728E-1,-4.4823335E-3,-1.875119E-2,-2.1197441E-1,-3.631628E-1,-8.621015E-3,5.1751565E-2,1.399204E-3,-1.8155614E-2,4.556112E-3,-1.9081363E-2,-4.8855343E-3,-4.2486493E-2,-3.7465635E-1,-5.5256635E-1,-1.0038418E-1,1.4918638E-2,-6.2184818E-2,-4.1271552E-1,-3.1432983E-2,3.4997024E-2,4.736154E-4,-3.0939104E-2,-5.1413723E-3,3.7135515E-2,1.3791858E-1,-8.9731375E-3,2.9804487E-2,-5.1090214E-3,-9.368085E-2,6.4672274E-3,7.448492E-2,-7.7942302E-3,2.0505888E-2,-2.0816001E-1,-1.7391592E-3,-1.0833399E-2,-3.3336238E-3,3.4735765E-2,1.4713795E-1,2.1317417E-2,6.0605407E-2,6.1322846E-3,-2.265886E-2,-1.9872417E-3,-8.568886E-3,-4.4309893E-3,-1.8790253E-2,-4.773624E-2,-5.2259625E-3,1.5044383E-2,-8.635203E-3,1.1956617E-2,-3.6309322E-3,2.16326E-2,-1.4518997E-4,-1.3360677E-2,-3.1575395E-3,7.482544E-5,6.785253E-2,8.254524E-3,-5.220284E-3,-4.05823E-2,-7.42497E-3,1.2141341E-2,-4.5785154E-3,2.4520706E-2,-5.8136225E-2,-8.909212E-3,-3.185286E-1,-2.3103274E-2,1.259461E-2,3.530428E-2,-3.8850335E-3,5.171406E-3,-1.1378318E-1,8.627944E-3,1.0855688E-1,-1.3018036E-1,-5.594945E-3,3.7653837E-2,-2.3512041E-2,-9.776399E-2,-2.644003E-3,-7.3259445E-3,-1.3331896E-1,-4.2467856E-1,5.473066E-4,3.761427E-2,7.3757105E-2,1.0544166E-2,-8.095559E-3,-4.2814612E-3,-2.0074151E-2,1.1006191E-2,-1.515174E-3,-9.586568E-3,-7.6027185E-2,1.3320355E-2,-6.5942155E-3,-2.4066346E-2,-4.7253686E-1,-4.7138286E-1,5.4488093E-2,-1.157077E-2,-1.557362E-1,2.3422815E-2,-1.0470968E-2,-1.0683649E-1,3.1951268E-3,1.111257E-2,-1.0866584E-1,4.3491945E-2,1.3632554E-2,7.737938E-3,-1.5989514E-2,-5.8653343E-2,-9.750317E-3,-3.9149956E-3,-2.7659532E-2,4.5499675E-2,-3.1235218E-3,-5.7917414E-4,-2.060885E-2,6.0060453E-2,1.5715135E-2,1.0270413E-2,-2.6010621E-2,-1.4572634E-1,-1.8215159E-2,1.1049696E-2,-8.62792E-3,-1.7391592E-3,1.0047267E-1,-2.6267474E-3,-2.2639992E-2,-3.8774896E-2,-6.587281E-3,2.210995E-2,-3.7907355E-3,4.292087E-2,1.924399E-2,1.0330152E-2,2.6076851E-2,1.6333401E-2,6.759006E-2,2.454962E-3,1.9819528E-2,-5.8789644E-3,-1.0233595E-3,-5.077458E-3,-2.051732E-2,-1.46107245E-2,-5.2364938E-2,2.0178605E-3,-2.0871319E-2,3.1061746E-2,7.743632E-3,-2.1170689E-2,-4.1138846E-3,3.33637E-3,1.3717909E-2,-4.2746114E-3,1.22914715E-2,-1.8787393E-2,-9.2045544E-4,2.4197127E-3,-5.318273E-3,-1.0981842E-2,9.276244E-3,-3.4036105E-3,8.029582E-2,3.870223E-2,-3.2092654E-3,-2.177736E-2,-4.3574837E-3,-1.5081593E-3,-5.8206163E-2,-1.0459534E-2,3.6156524E-2,4.3457843E-2,-5.15218E-3,-1.4155828E-2,-3.9938395E-3,2.61782E-2,-1.8723863E-1,-6.355557E-1,1.9707019E-2,2.2651138E-2,-1.270567E-1,-5.5672586E-1,2.5844872E-2,-3.7392914E-2,-2.0489248E-3,3.688227E-2,-1.8837963E-3,6.085746E-2,1.138503E-3,-4.262931E-3,3.8870424E-2,1.0035316E-2,-1.4163057E-3,1.57752E-2,-8.9544795E-2,1.499163E-1,3.101182E-2,-1.7234373E-1,-1.8451139E-3,-1.938585E-2,-3.892757E-3,5.740506E-2,1.26839755E-2,8.359337E-4,-4.813866E-2,-1.6344385E-1,5.0385547E-4,-3.6012356E-3,9.686172E-3,-1.5181474E-3,-2.5655517E-1,-4.2424735E-1,-3.6157079E-3,-7.301785E-3,1.2047291E-2,4.057752E-2,1.0276437E-3,-1.4561359E-2,-1.0865061E-3,1.4954619E-3,-2.6416986E-3,5.4671085E-3,-2.5060792E-2,-9.30322E-2,-1.2506067E-2,2.6166528E-2,4.0644122E-4,-2.2072272E-2,-4.9071023E-3,-7.838107E-3,-4.0151092E-1,-1.781561E-2,4.5945542E-4,4.9498923E-2,1.15781175E-2,-7.1650846E-3,-2.3510061E-2,2.8565666E-2,5.3392694E-4,4.8973374E-2,1.4804319E-2,1.89538E-2,3.5728568E-3,1.2226502E-2,-9.293929E-4,8.623988E-3,-1.3607216E-2,-4.667052E-3,3.3765197E-2,-3.3671875E-2,-1.8050787E-3,4.9791116E-2,3.4383368E-3,3.2624218E-3,-8.069308E-3,4.188748E-2,8.466506E-3,2.1616897E-2,-9.684631E-4,-5.342154E-2,-7.892266E-3,-3.6071125E-2,-2.3946166E-4,1.3132625E-2,-1.5734147E-2,-2.9039143E-2,-1.2232226E-3,-3.2450338E-3,2.3963451E-3,-1.3934772E-2,-8.613268E-2,-1.1871142E-2,4.4093183E-3,8.643949E-2,5.7151646E-4,2.1857606E-2,-4.017868E-3,4.5074545E-2,9.35407E-3,2.1138417E-2,-2.2583269E-2,2.2260174E-3,3.0219486E-2,2.728892E-2,4.1560797E-4,4.271553E-3,-7.695879E-3,8.289367E-3,2.8586566E-2,1.627562E-2,-3.2183293E-3,-3.245148E-2,-7.432926E-3,1.0318845E-3,3.4283742E-2,1.6510248E-2,2.3284333E-3,-5.129473E-3,-2.5105989E-3,-2.7559602E-3,-8.211911E-3,2.8011717E-3,-2.5511552E-3,1.1452792E-2,-3.0512263E-3,-3.943268E-3,-1.3598592E-2,3.930596E-3,1.8002242E-2,4.8823487E-3,4.5936614E-2,4.8485114E-3,-4.9562706E-3,-2.470963E-2,-5.024137E-3,-1.6793596E-2,-3.6785242E-3,-3.5996912E-3,4.47475E-3,-7.115804E-2,-2.8432306E-2,3.5445571E-3,-1.7368134E-2,4.92657E-2,-1.5855059E-3,5.519722E-2,1.5800135E-3,-1.1013834E-2,-9.536564E-4,-3.2681197E-2,-7.318053E-3,-3.8930173E-3,-4.6106663E-2],"categories":[],"categories_nodes":[],"categories_segments":[],"categories_sizes":[],"default_left":[1,1,1,1,1,1,1,1,1,1,1,1,1,1,0,1,1,1,1,1,1,1,0,1,1,0,1,1,1,1,1,1,1,1,1,1,1,0,0,1,1,0,0,1,1,1,1,0,0,1,1,1,0,1,1,0,1,1,0,1,1,1,1,0,1,1,1,1,1,0,0,0,0,1,1,1,1,0,0,0,1,1,0,1,1,1,1,1,1,1,1,1,1,1,1,1,1,1,0,1,1,1,1,1,1,1,1,1,1,1,1,1,0,1,0,1,1,0,1,1,0,1,1,1,0,1,0,1,0,1,1,1,1,1,1,1,1,0,1,1,1,1,1,0,0,1,1,0,0,1,1,1,1,1,1,1,1,0,1,1,1,0,1,1,1,1,1,1,0,1,1,1,1,1,1,1,0,0,0,1,1,1,0,1,1,1,0,0,0,1,1,1,1,1,1,1,0,0,1,1,1,1,1,1,1,1,1,1,1,1,1,1,1,1,1,1,1,1,0,1,1,1,1,1,1,1,1,1,1,0,1,1,0,0,1,0,0,0,1,1,1,1,1,1,0,0,0,1,0,1,1,0,0,1,0,1,1,1,0,0,1,1,1,1,0,1,0,0,1,1,1,0,1,1,1,0,0,1,0,1,1,1,1,1,1,1,1,0,0,1,1,0,0,0,0,0,0,1,1,1,1,0,1,0,0,1,0,0,1,1,1,0,1,0,0,1,1,1,1,1,1,1,1,1,1,1,1,0,0,0,0,0,0,0,0,0,0,0,0,0,0,0,0,0,0,0,0,0,0,0,0,0,0,0,0,0,0,0,0,0,0,0,0,0,0,0,0,0,0,0,0,0,0,0,0,0,0,0,0,0,0,0,0,0,0,0,0,0,0,0,0,0,0,0,0,0,0,0,0,0,0,0,0,0,0,0,0,0,0,0,0,0,0,0,0,0,0,0,0,0,0,0,0,0,0,0,0,0,0,0,0,0,0,0,0,0,0,0,0,0,0,0,0,0,0,0,0,0,0,0,0,0,0,0,0,0,0,0,0,0,0,0,0,0,0,0,0,0,0,0,0,0,0,0,0,0,0,0,0,0,0,0,0,0,0],"id":4,"left_children":[1,3,5,7,9,11,13,15,17,19,21,23,25,27,-1,29,31,33,35,37,39,41,-1,43,45,-1,47,49,51,53,55,57,59,61,63,65,67,-1,-1,69,71,-1,-1,73,75,77,79,-1,-1,81,83,85,-1,87,89,-1,91,93,-1,95,97,99,101,-1,103,105,107,109,111,-1,-1,-1,-1,113,115,117,119,-1,-1,-1,121,123,-1,125,127,129,131,133,135,137,139,141,143,145,147,149,151,153,-1,155,157,159,161,163,165,167,169,171,173,175,177,179,-1,181,-1,183,185,-1,187,189,-1,191,193,195,-1,197,-1,199,-1,201,203,205,207,209,211,213,215,-1,217,219,221,223,225,-1,-1,227,229,-1,-1,231,233,235,237,239,241,243,245,-1,247,249,251,-1,253,255,257,259,261,263,-1,265,267,269,271,273,275,277,-1,-1,-1,279,281,283,-1,285,287,289,-1,-1,-1,291,293,295,297,299,301,303,-1,-1,305,307,309,311,313,315,317,319,321,323,325,327,329,331,333,335,337,339,341,343,-1,345,347,349,351,353,355,357,359,361,363,-1,365,367,-1,-1,369,-1,-1,-1,371,373,375,377,379,381,-1,-1,-1,383,-1,385,387,-1,-1,389,-1,391,393,395,-1,-1,397,399,401,403,-1,405,-1,-1,407,409,411,-1,413,415,417,-1,-1,419,-1,421,423,425,427,429,431,433,435,-1,-1,437,439,-1,-1,-1,-1,-1,-1,441,443,445,447,-1,449,-1,-1,451,-1,-1,453,455,457,-1,459,-1,-1,461,463,465,467,469,471,473,475,477,479,481,483,-1,-1,-1,-1,-1,-1,-1,-1,-1,-1,-1,-1,-1,-1,-1,-1,-1,-1,-1,-1,-1,-1,-1,-1,-1,-1,-1,-1,-1,-1,-1,-1,-1,-1,-1,-1,-1,-1,-1,-1,-1,-1,-1,-1,-1,-1,-1,-1,-1,-1,-1,-1,-1,-1,-1,-1,-1,-1,-1,-1,-1,-1,-1,-1,-1,-1,-1,-1,-1,-1,-1,-1,-1,-1,-1,-1,-1,-1,-1,-1,-1,-1,-1,-1,-1,-1,-1,-1,-1,-1,-1,-1,-1,-1,-1,-1,-1,-1,-1,-1,-1,-1,-1,-1,-1,-1,-1,-1,-1,-1,-1,-1,-1,-1,-1,-1,-1,-1,-1,-1,-1,-1,-1,-1,-1,-1,-1,-1,-1,-1,-1,-1,-1,-1,-1,-1,-1,-1,-1,-1,-1,-1,-1,-1,-1,-1,-1,-1,-1,-1,-1,-1,-1,-1,-1,-1,-1,-1],"loss_changes":[2.823535E-2,5.5237062E-2,1.0521257E-1,3.983384E-2,1.6658291E-1,5.0515905E-2,1.2690596E-2,1.383332E-1,1.8104544E-1,4.62968E-3,7.6284215E-2,4.6089068E-2,8.669805E-3,1.0490696E-2,0E0,9.917112E-2,1.3589042E-1,2.902469E-1,4.4760123E-2,1.4972687E-4,2.1826122E-3,6.888765E-4,0E0,3.6751598E-2,4.0116716E-2,0E0,9.197695E-5,1.8355181E-2,4.5886915E-3,1.151402E-1,5.4337937E-1,2.9880974E-1,2.8343601E-2,3.8824373E-1,2.9314479E-2,3.9378967E-2,2.3786582E-2,0E0,0E0,5.619866E-4,2.0510182E-5,0E0,0E0,2.918677E-2,7.111308E-3,3.76834E-2,1.2145699E-2,0E0,0E0,3.5632044E-2,7.184824E-3,3.5564415E-3,0E0,1.4270547E-1,7.5771683E-1,0E0,1.4011106E-1,2.4240315E-1,0E0,1.6355636E-2,5.3706937E-3,6.060882E-1,2.692137E-1,0E0,2.6350088E-2,3.0931965E-2,2.8149137E-2,1.063367E-1,1.1846224E-2,0E0,0E0,0E0,0E0,4.713191E-2,9.043064E-3,3.360573E-3,4.9880138E-3,0E0,0E0,0E0,7.3765954E-3,2.3572566E-3,0E0,1.0278296E-2,4.7133304E-3,1.5439644E-2,7.6657906E-3,2.002938E-1,2.6196623E-2,6.073131E-1,2.9288486E-2,2.8051717E-2,1.3989605E-1,2.1434492E-1,8.9597225E-2,1.1301402E-2,1.7396659E-3,4.762171E-3,0E0,5.8488333E-1,3.9274275E-1,2.7511666E-2,4.0745404E-1,8.846529E-3,7.067545E-3,3.1111091E-2,1.10373115E-2,4.4034105E-2,1.8096108E-2,2.558075E-3,3.3509627E-2,5.8985623E-3,0E0,3.528455E-2,0E0,6.565973E-3,2.2414871E-3,0E0,9.692187E-6,4.7150382E-4,0E0,7.372895E-3,5.9874915E-3,6.4525293E-4,0E0,1.5829926E-3,0E0,1.094177E-3,0E0,1.8083714E-2,2.7831001E-3,1.357127E-2,6.788347E-3,1.638082E-1,3.8945383E-1,3.226628E-2,3.8087547E-2,0E0,1.9245833E-2,4.4238415E-2,5.837432E-2,1.701253E-2,3.7063602E-2,0E0,0E0,1.8751423E-1,2.714579E-1,0E0,0E0,2.8254576E-3,6.931656E-4,7.376191E-5,3.299585E-4,1.4951139E-2,4.3185335E-3,3.8470733E-1,2.7474266E-1,0E0,2.2778016E-2,1.4279911E-2,1.49379745E-2,0E0,3.7352618E-2,3.5813507E-3,1.5588476E-3,6.474885E-3,2.6532877E-3,4.1829143E-3,0E0,1.160101E-3,7.5818803E-3,9.910783E-3,2.4839107E-2,1.4483329E-2,8.098306E-3,1.167974E-3,0E0,0E0,0E0,1.6117303E-2,5.2594114E-3,1.1346996E-2,0E0,3.0773878E-3,4.4214725E-4,1.4109835E-3,0E0,0E0,0E0,2.3588676E-5,3.7921825E-5,1.5506521E-6,2.8754203E-3,3.618449E-3,8.197372E-4,1.4963094E-5,0E0,0E0,6.1745965E-4,8.603311E-4,7.60028E-4,1.1192405E-3,6.479919E-3,6.4070355E-3,1.4193638E-3,1.09304115E-2,8.048728E-3,1.3763218E-2,5.1399134E-3,2.2532311E-1,1.13623E0,8.863983E-2,4.2453253E-1,3.783162E-2,1.1322172E-2,2.4375949E-2,3.6718112E-3,1.7442326E-4,0E0,3.0882549E-2,1.1386916E-2,2.1326192E-2,1.4738669E-3,1.0121949E-2,3.637891E-3,3.2353435E-2,3.1815044E-4,1.906769E-1,4.8901266E-1,0E0,4.4902446E-4,1.3676994E-3,0E0,0E0,1.6545557E-4,0E0,0E0,0E0,2.0908337E-5,6.1935526E-3,3.1572431E-3,1.980097E-3,3.1558434E-3,2.969907E-1,0E0,0E0,0E0,2.3356601E-4,0E0,1.456121E-2,5.643456E-4,0E0,0E0,1.4617884E-3,0E0,1.7909706E-3,3.6052195E-4,3.6149804E-4,0E0,0E0,6.842911E-4,2.8779977E-3,7.16449E-4,1.6338397E-3,0E0,2.5651802E-4,0E0,0E0,2.4910641E-3,2.3163264E-3,6.034714E-3,0E0,1.2752562E-3,9.132845E-3,7.3702857E-3,0E0,0E0,4.8150454E-5,0E0,1.997448E-2,7.0829894E-3,1.1035059E-2,2.6394208E-3,4.060462E-3,3.2507293E-3,3.3176334E-3,1.3571959E-3,0E0,0E0,4.754315E-4,3.6954787E-4,0E0,0E0,0E0,0E0,0E0,0E0,1.3961944E-3,1.0037406E-3,9.3218405E-4,1.1009081E-3,0E0,8.289571E-6,0E0,0E0,3.1182746E-5,0E0,0E0,3.7490507E-5,9.244947E-4,4.5872363E-4,0E0,2.0911708E-4,0E0,0E0,9.990511E-4,2.2110828E-4,1.2148032E-4,7.9947326E-4,9.118838E-5,2.2187158E-3,5.382739E-3,2.0571789E-3,4.3373667E-3,4.0787164E-4,6.47447E-3,3.5399226E-3,0E0,0E0,0E0,0E0,0E0,0E0,0E0,0E0,0E0,0E0,0E0,0E0,0E0,0E0,0E0,0E0,0E0,0E0,0E0,0E0,0E0,0E0,0E0,0E0,0E0,0E0,0E0,0E0,0E0,0E0,0E0,0E0,0E0,0E0,0E0,0E0,0E0,0E0,0E0,0E0,0E0,0E0,0E0,0E0,0E0,0E0,0E0,0E0,0E0,0E0,0E0,0E0,0E0,0E0,0E0,0E0,0E0,0E0,0E0,0E0,0E0,0E0,0E0,0E0,0E0,0E0,0E0,0E0,0E0,0E0,0E0,0E0,0E0,0E0,0E0,0E0,0E0,0E0,0E0,0E0,0E0,0E0,0E0,0E0,0E0,0E0,0E0,0E0,0E0,0E0,0E0,0E0,0E0,0E0,0E0,0E0,0E0,0E0,0E0,0E0,0E0,0E0,0E0,0E0,0E0,0E0,0E0,0E0,0E0,0E0,0E0,0E0,0E0,0E0,0E0,0E0,0E0,0E0,0E0,0E0,0E0,0E0,0E0,0E0,0E0,0E0,0E0,0E0,0E0,0E0,0E0,0E0,0E0,0E0,0E0,0E0,0E0,0E0,0E0,0E0,0E0,0E0,0E0,0E0,0E0,0E0,0E0,0E0,0E0,0E0,0E0,0E0,0E0,0E0,0E0,0E0,0E0,0E0],"parents":[2147483647,0,0,1,1,2,2,3,3,4,4,5,5,6,6,7,7,8,8,9,9,10,10,11,11,12,12,13,13,15,15,16,16,17,17,18,18,19,19,20,20,21,21,23,23,24,24,26,26,27,27,28,28,29,29,30,30,31,31,32,32,33,33,34,34,35,35,36,36,39,39,40,40,43,43,44,44,45,45,46,46,49,49,50,50,51,51,53,53,54,54,56,56,57,57,59,59,60,60,61,61,62,62,64,64,65,65,66,66,67,67,68,68,73,73,74,74,75,75,76,76,80,80,81,81,83,83,84,84,85,85,86,86,87,87,88,88,89,89,90,90,91,91,92,92,93,93,94,94,95,95,96,96,97,97,99,99,100,100,101,101,102,102,103,103,104,104,105,105,106,106,107,107,108,108,109,109,110,110,111,111,113,113,115,115,116,116,118,118,119,119,121,121,122,122,123,123,125,125,127,127,129,129,130,130,131,131,132,132,133,133,134,134,135,135,136,136,138,138,139,139,140,140,141,141,142,142,145,145,146,146,149,149,150,150,151,151,152,152,153,153,154,154,155,155,156,156,158,158,159,159,160,160,162,162,163,163,164,164,165,165,166,166,167,167,169,169,170,170,171,171,172,172,173,173,174,174,175,175,179,179,180,180,181,181,183,183,184,184,185,185,189,189,190,190,191,191,192,192,193,193,194,194,195,195,198,198,199,199,200,200,201,201,202,202,203,203,204,204,205,205,206,206,207,207,208,208,209,209,210,210,211,211,212,212,213,213,214,214,215,215,216,216,217,217,219,219,220,220,221,221,222,222,223,223,224,224,225,225,226,226,227,227,228,228,230,230,231,231,234,234,238,238,239,239,240,240,241,241,242,242,243,243,247,247,249,249,250,250,253,253,255,255,256,256,257,257,260,260,261,261,262,262,263,263,265,265,268,268,269,269,270,270,272,272,273,273,274,274,277,277,279,279,280,280,281,281,282,282,283,283,284,284,285,285,286,286,289,289,290,290,297,297,298,298,299,299,300,300,302,302,305,305,308,308,309,309,310,310,312,312,315,315,316,316,317,317,318,318,319,319,320,320,321,321,322,322,323,323,324,324,325,325,326,326],"right_children":[2,4,6,8,10,12,14,16,18,20,22,24,26,28,-1,30,32,34,36,38,40,42,-1,44,46,-1,48,50,52,54,56,58,60,62,64,66,68,-1,-1,70,72,-1,-1,74,76,78,80,-1,-1,82,84,86,-1,88,90,-1,92,94,-1,96,98,100,102,-1,104,106,108,110,112,-1,-1,-1,-1,114,116,118,120,-1,-1,-1,122,124,-1,126,128,130,132,134,136,138,140,142,144,146,148,150,152,154,-1,156,158,160,162,164,166,168,170,172,174,176,178,180,-1,182,-1,184,186,-1,188,190,-1,192,194,196,-1,198,-1,200,-1,202,204,206,208,210,212,214,216,-1,218,220,222,224,226,-1,-1,228,230,-1,-1,232,234,236,238,240,242,244,246,-1,248,250,252,-1,254,256,258,260,262,264,-1,266,268,270,272,274,276,278,-1,-1,-1,280,282,284,-1,286,288,290,-1,-1,-1,292,294,296,298,300,302,304,-1,-1,306,308,310,312,314,316,318,320,322,324,326,328,330,332,334,336,338,340,342,344,-1,346,348,350,352,354,356,358,360,362,364,-1,366,368,-1,-1,370,-1,-1,-1,372,374,376,378,380,382,-1,-1,-1,384,-1,386,388,-1,-1,390,-1,392,394,396,-1,-1,398,400,402,404,-1,406,-1,-1,408,410,412,-1,414,416,418,-1,-1,420,-1,422,424,426,428,430,432,434,436,-1,-1,438,440,-1,-1,-1,-1,-1,-1,442,444,446,448,-1,450,-1,-1,452,-1,-1,454,456,458,-1,460,-1,-1,462,464,466,468,470,472,474,476,478,480,482,484,-1,-1,-1,-1,-1,-1,-1,-1,-1,-1,-1,-1,-1,-1,-1,-1,-1,-1,-1,-1,-1,-1,-1,-1,-1,-1,-1,-1,-1,-1,-1,-1,-1,-1,-1,-1,-1,-1,-1,-1,-1,-1,-1,-1,-1,-1,-1,-1,-1,-1,-1,-1,-1,-1,-1,-1,-1,-1,-1,-1,-1,-1,-1,-1,-1,-1,-1,-1,-1,-1,-1,-1,-1,-1,-1,-1,-1,-1,-1,-1,-1,-1,-1,-1,-1,-1,-1,-1,-1,-1,-1,-1,-1,-1,-1,-1,-1,-1,-1,-1,-1,-1,-1,-1,-1,-1,-1,-1,-1,-1,-1,-1,-1,-1,-1,-1,-1,-1,-1,-1,-1,-1,-1,-1,-1,-1,-1,-1,-1,-1,-1,-1,-1,-1,-1,-1,-1,-1,-1,-1,-1,-1,-1,-1,-1,-1,-1,-1,-1,-1,-1,-1,-1,-1,-1,-1,-1,-1],"split_conditions":[5.705E2,5.6085E3,9.5E0,2.005E2,1.265E3,6.132E3,9.5375E3,1.22E2,3.15E1,8.76E2,1.3455E3,1.8E1,6.8E1,6.5E0,-5.815279E-2,6.99E2,9.5E0,3.5E0,3.85E1,1.035E3,2.35E2,3.737E3,-2.2239193E-1,2.465E2,1.05E1,-9.6721016E-2,3.314E3,1.815E2,8.2085E3,5.015E2,7.06E2,2.1595E3,1.45E1,2E0,5.5E0,3.05E1,7.05E1,-5.2571525E-3,-2.3195071E-2,1.6005E3,1.8375E3,-6.060703E-3,-3.6951233E-2,6.82E2,2.55E1,2E0,6.35E2,-2.7455257E-2,-6.893599E-3,4.96E2,1E0,1.13E2,3.0635318E-2,2.5E0,6.245E2,-3.1543642E-1,7.26E2,6.5E0,-2.1774776E-1,2.395E2,4.8055E3,2.805E2,6.525E2,8.497182E-2,1.25E1,7E0,1.175E2,2.942E3,7.248E3,1.967171E-2,5.491614E-4,4.9963593E-5,-3.2899722E-3,4.3935E3,4.775E2,6.09E2,1.0565E3,1.5948692E-2,-1.3680467E-1,3.9484974E-2,9.1E2,5.975E2,8.3273776E-2,3.91E2,4.414E3,9.65E1,6.35E1,8.81E2,1E0,2.2E1,5.2E1,1.75E1,8.965E2,8.485E2,7.485E2,6.215E2,1.17E2,8.2E1,3.1454325E-2,4.455E2,3.74E2,1.628E3,1.35E1,2E0,1E0,7.58E2,5E0,1.5325E3,4.0505E3,2.834E3,2.234E3,2.41E2,-5.7614118E-2,3.238E3,1.1774221E-1,4.9815E3,1.027E3,1.9387467E-2,7.24E2,6.805E2,-3.9513797E-2,4.55E1,4.79E2,6E0,2.1434652E-2,1.855E2,5.059698E-2,1.26E2,3.099368E-2,2.09E2,5.5E1,2.14E2,1.195E2,3.775E2,8.4E1,5.5E1,5E-1,-3.7363642E-1,9.98E2,8.2E1,6E0,2.635E2,5E0,-2.1797809E-1,-3.1376334E-3,8.65E2,1.8E2,-2.5421396E-1,-6.03471E-3,2.25E1,3.845E2,3.1E1,1.15E2,1.5655E3,1.8E1,6.935E2,1.65E1,-3.8679644E-1,1.1375E3,2.89E2,7.15E2,-2.8890085E-1,1.56E2,2.51E2,9.64E2,2.6E1,4.2105E3,9.825E2,9.6543E-2,1.895E2,4.875E2,6.6E1,9E0,2.04E2,9.98E2,5.115E2,1.4354122E-2,-1.45712E-1,-1.2174115E-3,3.35E1,1.08E2,2.6E1,1.02996565E-1,3.715E2,1.929E3,2.9025E3,-1.5861202E-2,-1.3910691E-3,-5.99822E-3,2.989E3,3.4E1,4.27E2,1.432E3,1.28E2,9.55E2,1.8E2,-2.5416524E-3,1.514282E-2,2.8475E3,3.1E2,1.52E2,1.545E2,1.5E0,3.95E1,6.5E0,2.905E2,4.464E3,1.71E2,1.3E2,9.42E2,4.035E2,4.935E2,1.03E2,2.535E2,3.15E1,5.5E0,3.375E3,4.6E1,-7.964823E-2,2.5655E3,6.35E1,4.8E1,3E0,2.85E1,2.55E1,8.7E1,1.215E3,2.581E3,8.51E2,-2.9727498E-1,3.85E1,2.45E2,5.162997E-2,7.3809163E-3,4.1E1,-2.9970228E-3,-1.4051906E-2,7.704334E-3,9.7E1,3E0,3.365E2,2.305E2,1.05E2,2.3845E3,-3.307758E-1,-3.29968E-1,3.8141664E-2,7.1E1,-1.0901533E-1,2.97E2,4.3E1,-7.4785545E-2,2.2365886E-3,4.95E1,-7.6066084E-2,4.095E2,1.7E1,1.17E2,-1.119266E-2,-4.105734E-2,2.415E2,4.644E3,2.79E3,9.5E2,-2.1864653E-3,3.6E1,-1.4426195E-2,4.2042315E-2,4.74E2,3.55E1,1.115E2,-1.0200843E-1,6.89E2,9.8E2,5E-1,-1.2174115E-3,7.0330866E-2,2.923E3,-1.5847994E-2,9.8E2,8.55E2,1.785E2,2.455E2,3.0175E3,4.6505E3,3E0,4.6655E3,1.1433381E-2,4.731304E-2,2.0315E3,2.761E3,-4.115275E-3,-7.163516E-4,-3.5542205E-3,-1.4362124E-2,-1.0227507E-2,-3.6655456E-2,6.475E2,2.445E2,5.555E2,1.349E3,-1.4819482E-2,1.5255E3,2.335459E-3,9.602536E-3,3.38E3,8.60403E-3,-1.3151175E-2,6.95E1,2.47E2,3.5835E3,-7.6872893E-3,2.4745E3,-2.3825273E-3,5.6207076E-2,4E0,2.01E2,1.38E2,6.25E1,1.7475E3,6E2,7.12E2,2.2575E3,1.643E3,3.415E2,1.72E2,9.173E3,1.832474E-2,-1.3106704E-1,-4.4488898E-1,1.3794913E-2,1.5855797E-2,-8.893969E-2,-3.897081E-1,1.809141E-2,-2.6175039E-2,-1.4342474E-3,2.5817588E-2,-1.3186574E-3,4.2600222E-2,7.9695205E-4,-2.9840518E-3,2.7209297E-2,7.0247212E-3,-9.91414E-4,1.104264E-2,-6.2681355E-2,1.0494141E-1,2.1708274E-2,-1.2064061E-1,-1.2915797E-3,-1.35700945E-2,-2.72493E-3,4.018354E-2,8.878782E-3,5.851536E-4,-3.369706E-2,-1.1441069E-1,3.5269881E-4,-2.5208648E-3,6.7803203E-3,-1.0627032E-3,-1.7958862E-1,-2.9697314E-1,-2.5309955E-3,-5.1112496E-3,8.433104E-3,2.8404264E-2,7.193506E-4,-1.0192951E-2,-7.605542E-4,1.0468233E-3,-1.8491889E-3,3.8269758E-3,-1.7542554E-2,-6.5122545E-2,-8.754247E-3,1.8316569E-2,2.8450886E-4,-1.545059E-2,-3.4349717E-3,-5.4866746E-3,-2.8105766E-1,-1.2470927E-2,3.2161878E-4,3.4649245E-2,8.104682E-3,-5.015559E-3,-1.6457042E-2,1.9995965E-2,3.7374886E-4,3.428136E-2,1.0363023E-2,1.326766E-2,2.5009997E-3,8.558552E-3,-6.50575E-4,6.036792E-3,-9.525051E-3,-3.2669364E-3,2.3635637E-2,-2.3570312E-2,-1.263555E-3,3.4853783E-2,2.4068358E-3,2.2836952E-3,-5.648515E-3,2.9321237E-2,5.9265546E-3,1.5131827E-2,-6.7792414E-4,-3.7395075E-2,-5.524586E-3,-2.5249787E-2,-1.6762316E-4,9.192837E-3,-1.1013903E-2,-2.03274E-2,-8.562558E-4,-2.2715237E-3,1.6774415E-3,-9.75434E-3,-6.0292877E-2,-8.309799E-3,3.0865227E-3,6.0507644E-2,4.0006152E-4,1.5300324E-2,-2.8125076E-3,3.155218E-2,6.5478487E-3,1.4796891E-2,-1.5808288E-2,1.5582122E-3,2.115364E-2,1.9102244E-2,2.9092559E-4,2.990087E-3,-5.3871153E-3,5.802557E-3,2.0010596E-2,1.1392934E-2,-2.2528304E-3,-2.2716036E-2,-5.2030482E-3,7.223191E-4,2.399862E-2,1.1557174E-2,1.6299033E-3,-3.5906308E-3,-1.7574192E-3,-1.9291721E-3,-5.7483376E-3,1.9608203E-3,-1.7858086E-3,8.016954E-3,-2.1358584E-3,-2.7602876E-3,-9.5190145E-3,2.7514172E-3,1.2601569E-2,3.417644E-3,3.215563E-2,3.3939579E-3,-3.4693894E-3,-1.729674E-2,-3.516896E-3,-1.1755517E-2,-2.574967E-3,-2.5197838E-3,3.132325E-3,-4.9810626E-2,-1.9902613E-2,2.48119E-3,-1.21576935E-2,3.4485992E-2,-1.1098541E-3,3.8638055E-2,1.1060095E-3,-7.7096834E-3,-6.6755945E-4,-2.2876838E-2,-5.122637E-3,-2.725112E-3,-3.2274663E-2],"split_indices":[184,274,126,259,63,305,265,266,25,156,3,249,4,369,0,9,108,368,116,0,109,0,0,255,309,0,4,53,63,191,9,51,122,8,368,19,116,0,0,0,12,0,0,136,344,0,184,0,0,356,84,95,0,126,319,0,186,236,0,42,180,214,316,0,126,8,21,149,70,0,0,0,0,349,98,9,24,0,0,0,29,101,0,230,99,126,127,19,240,64,111,109,9,107,0,111,327,370,0,166,5,290,50,47,127,134,30,25,364,17,4,120,0,214,0,180,371,0,7,17,0,249,124,84,0,7,0,293,0,239,123,174,127,190,350,356,124,0,42,259,114,124,103,0,0,85,7,0,0,254,10,11,90,105,382,232,16,0,5,255,3,0,24,98,139,274,8,33,0,58,25,176,68,119,1,245,0,0,0,11,116,86,0,186,4,70,0,0,0,0,5,0,104,230,257,2,0,0,44,374,91,77,2,325,381,106,303,126,126,56,190,306,2,383,383,348,33,0,0,65,2,15,223,135,8,2,18,368,341,0,3,16,0,0,0,0,0,0,3,370,1,327,127,6,0,0,0,1,0,8,28,0,0,0,0,22,16,94,0,0,0,51,2,6,0,18,0,0,8,67,23,0,0,380,254,0,0,2,0,103,67,0,120,45,57,114,329,0,0,216,16,0,0,0,0,0,0,62,10,27,273,0,7,0,0,6,0,0,10,254,264,0,6,0,0,34,383,3,127,0,39,351,6,25,252,117,272,0,0,0,0,0,0,0,0,0,0,0,0,0,0,0,0,0,0,0,0,0,0,0,0,0,0,0,0,0,0,0,0,0,0,0,0,0,0,0,0,0,0,0,0,0,0,0,0,0,0,0,0,0,0,0,0,0,0,0,0,0,0,0,0,0,0,0,0,0,0,0,0,0,0,0,0,0,0,0,0,0,0,0,0,0,0,0,0,0,0,0,0,0,0,0,0,0,0,0,0,0,0,0,0,0,0,0,0,0,0,0,0,0,0,0,0,0,0,0,0,0,0,0,0,0,0,0,0,0,0,0,0,0,0,0,0,0,0,0,0,0,0,0,0,0,0,0,0,0,0,0,0,0,0,0,0,0,0],"split_type":[0,0,0,0,0,0,0,0,0,0,0,0,0,0,0,0,0,0,0,0,0,0,0,0,0,0,0,0,0,0,0,0,0,0,0,0,0,0,0,0,0,0,0,0,0,0,0,0,0,0,0,0,0,0,0,0,0,0,0,0,0,0,0,0,0,0,0,0,0,0,0,0,0,0,0,0,0,0,0,0,0,0,0,0,0,0,0,0,0,0,0,0,0,0,0,0,0,0,0,0,0,0,0,0,0,0,0,0,0,0,0,0,0,0,0,0,0,0,0,0,0,0,0,0,0,0,0,0,0,0,0,0,0,0,0,0,0,0,0,0,0,0,0,0,0,0,0,0,0,0,0,0,0,0,0,0,0,0,0,0,0,0,0,0,0,0,0,0,0,0,0,0,0,0,0,0,0,0,0,0,0,0,0,0,0,0,0,0,0,0,0,0,0,0,0,0,0,0,0,0,0,0,0,0,0,0,0,0,0,0,0,0,0,0,0,0,0,0,0,0,0,0,0,0,0,0,0,0,0,0,0,0,0,0,0,0,0,0,0,0,0,0,0,0,0,0,0,0,0,0,0,0,0,0,0,0,0,0,0,0,0,0,0,0,0,0,0,0,0,0,0,0,0,0,0,0,0,0,0,0,0,0,0,0,0,0,0,0,0,0,0,0,0,0,0,0,0,0,0,0,0,0,0,0,0,0,0,0,0,0,0,0,0,0,0,0,0,0,0,0,0,0,0,0,0,0,0,0,0,0,0,0,0,0,0,0,0,0,0,0,0,0,0,0,0,0,0,0,0,0,0,0,0,0,0,0,0,0,0,0,0,0,0,0,0,0,0,0,0,0,0,0,0,0,0,0,0,0,0,0,0,0,0,0,0,0,0,0,0,0,0,0,0,0,0,0,0,0,0,0,0,0,0,0,0,0,0,0,0,0,0,0,0,0,0,0,0,0,0,0,0,0,0,0,0,0,0,0,0,0,0,0,0,0,0,0,0,0,0,0,0,0,0,0,0,0,0,0,0,0,0,0,0,0,0,0,0,0,0,0,0,0,0,0,0,0,0,0,0,0,0,0,0,0,0,0,0,0,0,0,0,0,0,0,0],"sum_hessian":[4.381E3,2.811E3,1.57E3,2.792E3,1.9E1,3.02E2,1.268E3,1.611E3,1.181E3,1.5E1,4E0,2.98E2,4E0,1.267E3,1E0,1.258E3,3.53E2,2.87E2,8.94E2,4E0,1.1E1,2E0,2E0,2.18E2,8E1,1E0,3E0,1.06E2,1.161E3,1.198E3,6E1,1.54E2,1.99E2,1.43E2,1.44E2,2.9E2,6.04E2,1E0,3E0,4E0,7E0,1E0,1E0,1.96E2,2.2E1,2E0,7.8E1,2E0,1E0,1.6E1,9E1,1.16E3,1E0,1.076E3,1.22E2,2E0,5.8E1,1.51E2,3E0,3.5E1,1.64E2,6.2E1,8.1E1,1E0,1.43E2,4.5E1,2.45E2,2.2E1,5.82E2,3E0,1E0,1E0,6E0,9.9E1,9.7E1,9E0,1.3E1,1E0,1E0,3E0,7.5E1,1.3E1,3E0,1.6E1,7.4E1,1.37E2,1.023E3,6.77E2,3.99E2,9E0,1.13E2,5.3E1,5E0,1.48E2,3E0,2.3E1,1.2E1,1.63E2,1E0,5.4E1,8E0,6.8E1,1.3E1,3.3E1,1.1E2,1.5E1,3E1,3.5E1,2.1E2,1.8E1,4E0,5.81E2,1E0,9.7E1,2E0,6.7E1,3E1,4E0,5E0,1E1,3E0,2.8E1,4.7E1,1E1,3E0,1.4E1,2E0,7.3E1,1E0,1.5E1,1.22E2,7.2E1,9.51E2,6.51E2,2.6E1,1.56E2,2.43E2,4E0,5E0,4.5E1,6.8E1,2.6E1,2.7E1,2E0,3E0,1.43E2,5E0,2E0,1E0,1.7E1,6E0,5E0,7E0,2.8E1,1.35E2,4.9E1,5E0,4E0,4E0,6.4E1,4E0,3E0,1E1,2.2E1,1.1E1,1.1E1,9.9E1,1.1E1,4E0,1.1E1,1.9E1,2.9E1,6E0,2.07E2,3E0,1.5E1,3E0,3E0,1E0,1.37E2,4.44E2,9.5E1,2E0,6.3E1,4E0,2.8E1,2E0,1E0,4E0,5E0,5E0,4E0,2.4E1,3.2E1,1.5E1,3E0,7E0,4E0,1E1,1.2E1,6.1E1,9E0,6E0,1.7E1,1.05E2,1.5E1,5.7E1,2.4E1,9.27E2,6.27E2,2.4E1,2.2E1,4E0,1.25E2,3.1E1,2.7E1,2.16E2,4E0,1E0,4.1E1,4E0,3E0,6.5E1,2.1E1,5E0,4E0,2.3E1,1.31E2,1.2E1,2E0,3E0,1.2E1,5E0,3E0,3E0,1E0,4E0,3E0,4E0,2.5E1,3E0,1.1E1,1.24E2,4.8E1,1E0,4E0,1E0,2E0,2E0,4.8E1,1.6E1,2E0,2E0,7E0,3E0,1.5E1,7E0,8E0,3E0,4E0,7E0,9.5E1,4E0,9E0,2E0,7E0,4E0,5E0,1.4E1,1.7E1,1.2E1,3E0,3E0,1.59E2,4.8E1,1E0,2E0,1.2E1,3E0,1.7E1,1.2E2,7E0,4.37E2,6.1E1,3.4E1,2E1,4.3E1,1E0,3E0,2.3E1,5E0,3E0,2E0,1E0,4E0,1E0,3E0,1.7E1,7E0,9E0,2.3E1,3E0,1.2E1,1E0,2E0,8E0,2E0,8E0,4E0,1.7E1,4.4E1,4E0,5E0,1E0,5E0,4E0,1.3E1,4E0,1.01E2,5E0,1E1,5.4E1,3E0,8E0,1.6E1,5.2E1,8.75E2,6.23E2,4E0,2E0,2.2E1,1.8E1,4E0,2E0,2E0,7.4E1,5.1E1,1.1E1,2E1,1.5E1,1.2E1,2.15E2,1E0,2E0,2E0,3.9E1,2E0,2E0,2E0,2E0,1E0,6E0,5.9E1,1.1E1,1E1,3E0,2E0,2E0,2E0,2.2E1,1E0,1.29E2,2E0,3E0,9E0,2E0,1E0,1.1E1,1E0,1E0,2E0,1E0,3E0,1.3E1,1.2E1,2E0,1E0,5E0,6E0,1.1E1,1.13E2,4.7E1,1E0,1E0,1E0,1.4E1,3.4E1,1.4E1,2E0,2E0,5E0,1.2E1,3E0,4E0,3E0,5E0,3E0,1E0,6E0,9.4E1,1E0,3E0,1E0,8E0,1E0,5E0,2E0,2E0,1.2E1,8E0,9E0,4E0,8E0,1E0,2E0,1.48E2,1.1E1,1.2E1,3.6E1,1.1E1,1E0,1.2E1,5E0,8.1E1,3.9E1,1E0,6E0,3E0,4.34E2,5.7E1,4E0,3.3E1,1E0,1.5E1,5E0,4.1E1,2E0,2E1,3E0,3E0,2E0,4E0,1.3E1,3E0,4E0,1E0,8E0,8E0,1.5E1,6E0,6E0,7E0,1E0,1E0,3E0,6E0,1.1E1,3.9E1,5E0,4E0,1E0,1E0,3E0,2E0,1.1E1,3E0,1E0,4E0,9.7E1,4E0,1E0,6E0,4E0,1.8E1,3.6E1,2E0,1E0,6E0,2E0,6E0,1E1,1.3E1,3.9E1,8.74E2,1E0],"tree_param":{"num_deleted":"0","num_feature":"384","num_nodes":"485","size_leaf_vector":"0"}},{"base_weights":[-2.0459415E-3,-5.5414285E-3,7.33628E-5,-9.905312E-3,3.6140482E-4,4.7290847E-3,-1.5413613E-3,-9.079242E-3,-1.384981E-1,7.1238214E-4,-6.1237726E-2,1.2149095E-2,-2.3340522E-3,-8.803636E-3,-1.0838066E-3,-7.599764E-3,-4.6266064E-2,-2.0601979E-1,-2.3031312E-3,8.290858E-3,-2.4582378E-3,-3.7660322E-4,-8.139923E-2,1.6083501E-2,-9.682258E-3,-4.338266E-2,3.2889907E-4,-6.2605026E-3,-3.615205E-2,-1.0198178E-3,-4.1376825E-2,-1.0798435E-2,8.443587E-3,-2.4138767E-1,-2.1212958E-2,1.1896724E-2,-2.8014379E-2,-2.4583315E-2,-5.120506E-4,2.8438285E-2,9.366284E-3,-6.500776E-2,4.6959464E-3,-2.4503969E-1,1.3547475E-3,2.0373652E-3,-3.0346846E-2,-5.314917E-3,-3.8529966E-2,-7.62108E-2,-8.09676E-3,-9.586304E-4,-2.9874744E-2,-5.399902E-2,-8.066218E-3,-9.727859E-3,-4.1168264E-1,1.5871808E-2,-9.571777E-3,-2.6240686E-3,-2.0622715E-1,1.2973976E-2,-9.531335E-2,-6.947695E-2,1.9618678E-3,-1.5264047E-2,-1.04640715E-1,-6.996265E-4,4.2417496E-2,2.3720577E-2,7.4552305E-2,-3.052752E-2,1.1988403E-2,-1.7838602E-1,-1.9266258E-4,3.0750735E-2,-2.1380258E-3,-2.877431E-1,-5.8464736E-2,2.1704555E-2,-7.4633663E-3,2.5736084E-3,-8.531648E-2,-1.6944149E-1,-2.3699233E-3,-3.875035E-3,-2.0883042E-2,-1.6410548E-2,2.2412194E-3,2.2869636E-3,-1.4667741E-3,-3.9581925E-2,-3.7660322E-4,-5.611064E-3,-4.0267024E-2,2.0105204E-2,-3.2929454E-2,-4.5888154E-3,-4.8517708E-2,1.0424181E-2,-4.8850093E-2,-3.0714896E-1,-2.1917776E-3,1.8870465E-2,-2.8105038E-3,-1.9809207E-2,-1.4565346E-1,1.5250235E-2,-6.588595E-3,-4.1737594E-3,-3.5417367E-2,-1.2489614E-1,-2.193723E-2,7.2930926E-3,-1.6382317E-3,3.0208746E-2,-9.797289E-3,2.942431E-2,1.0476984E-1,-6.85281E-3,-1.4547467E-1,2.827786E-2,6.630135E-3,-2.46929E-1,1.3621479E-2,1.1585154E-2,-9.576383E-3,3.8718283E-2,1.1111727E-2,-1.4388885E-2,4.8793308E-3,2.6783451E-2,7.6978407E-3,-2.7229019E-2,4.026317E-4,7.1706735E-3,-5.651961E-3,-3.7857942E-2,8.731769E-3,-1.2111264E-2,-1.2911306E-3,-3.8120065E-2,5.305906E-4,-3.3290545E-4,3.2102293E-3,1.2976503E-3,4.362185E-2,-5.988248E-3,-1.1232354E-3,-3.813368E-3,-8.957357E-2,-3.0591506E-1,-3.0753262E-2,2.5462065E-2,-7.5466563E-3,1.1285913E-2,-1.2512216E-1,-6.991719E-3,1.0593408E-2,-7.760087E-2,-3.2619776E-3,1.8126286E-3,3.739199E-2,-8.3988324E-2,-1.499333E-3,2.0844532E-2,-5.1978428E-2,-6.022146E-3,5.16537E-2,-7.842541E-3,-3.9821267E-2,1.693973E-2,4.246129E-3,-9.587602E-4,-1.5652066E-2,9.321181E-3,-1.5442725E-2,-5.9533056E-2,-6.242053E-3,3.561021E-2,-1.0958917E-3,-1.0892279E-2,-1.0057421E-3,3.5420857E-2,3.4795955E-3,1.1265928E-2,-7.580342E-2,3.43481E-2,4.8645735E-3,-1.9382672E-2,6.8191886E-3,1.43346E-2,6.8804495E-2,-1.5162033E-2,1.0298624E-2,-1.2638593E-2,-3.322045E-3,-2.1893349E-2,-1.984788E-3,7.839808E-3,-7.3463484E-3,-4.334244E-3,5.0724023E-3,7.814143E-3,-6.269204E-2,-2.1919776E-2,5.3888623E-4,-6.4200046E-4,1.9774834E-2,-3.0620366E-2,-5.6288503E-3,1.0131984E-2,-2.741372E-3,-2.5979257E-3,6.5223277E-3,6.311253E-4,5.663102E-2,4.8132808E-4,6.507178E-2,-2.636939E-2,-2.700263E-3,1.4079494E-2,-1.2425181E-3,7.171274E-4,-3.273515E-2,-3.40791E-1,9.921264E-3,-5.0623108E-2,2.134367E-2,2.2339731E-2,7.032701E-2,-1.4888415E-2,6.336197E-4,-1.0298025E-2,2.1979094E-2,-5.225153E-3,-1.6899396E-2,4.6839318E-4,1.5538817E-2,-3.7660322E-4,-4.516363E-3,9.706396E-3,-3.2189038E-2,4.252143E-2,5.8723986E-3,1.7707823E-2,4.139084E-2,-6.908769E-2,-3.2532215E-4,-1.4266079E-2,7.057057E-3,1.6372005E-3,-2.6660408E-3,1.589971E-3,2.4386108E-2,-4.2032E-3,-2.6081793E-2,-6.3477285E-2,-1.7933838E-2,-2.151527E-3,-8.772066E-3,6.8819327E-3,8.416422E-2,-4.3126938E-4,-8.706063E-3,-1.6480131E-2,1.587272E-2,9.09642E-3,-1.3289148E-3,3.872801E-2,1.017246E-2,-1.2684054E-3,3.2601804E-2,-1.2756731E-2,2.3360081E-2,-8.654623E-2,-2.178751E-2,-7.0833457E-3,-2.37615E-2,1.5751123E-3,1.6519785E-2,2.1350073E-2,1.3596001E-3,9.623463E-2,1.6641403E-2,-4.727782E-3,-1.06706396E-1,2.2366919E-2,5.085504E-3,3.1363338E-3,-8.151354E-3,-7.9576194E-4,9.508712E-3,-3.7168511E-3,-1.0932169E-2,-5.2958727E-4,-4.989258E-3,1.8520164E-3,7.675449E-3,9.97828E-3,-1.2811244E-2,4.391464E-3,-3.407904E-2,-2.8510058E-2,1.9493361E-3,-5.550898E-3,1.9194484E-3,2.2366535E-2,3.4081638E-3,-1.1252055E-2,-2.8168445E-3,1.2861804E-2,3.8507688E-4,-1.2997494E-2,-1.7423033E-4,-9.6172356E-4,-3.7532658E-3,-2.1828107E-4,3.5351597E-2,8.3332896E-2,1.6136381E-3,1.8305242E-3,-1.1085321E-3,-6.3255355E-2,-8.802787E-3,3.401706E-2,-5.377326E-3,3.7714764E-2,2.010542E-3,-1.1816751E-3,-2.4006547E-2,1.9720905E-3,-1.17368914E-1,-1.7795209E-2,-1.3705517E-1,-7.830024E-3,1.755675E-2,-9.153234E-2,1.906398E-3,8.877091E-3,8.457394E-2,2.7294377E-2,-5.2953223E-3,2.7689159E-2,8.952252E-2,-1.9639147E-2,1.1594329E-3,8.135862E-3,-4.473478E-3,-7.745732E-4,-1.4672464E-2,-3.0230107E-3,-1.1453704E-2,-1.6559958E-3,2.3585856E-3,1.9351974E-2,-1.0176715E-3,2.0072605E-2,-7.119838E-3,5.1266134E-2,7.4369134E-3,-3.2691382E-2,-7.5298906E-3,2.2146342E-2,-7.3020263E-3,6.3161612E-3,-3.4542133E-3,-1.4470692E-2,1.6310794E-3,-2.8796645E-2,-4.896343E-3,-2.7461846E-3,2.384419E-2,-7.7511725E-4,3.6094298E-3,-5.067725E-3,-2.5568157E-2,2.1341227E-2,-3.0006545E-3,2.7222568E-2,2.9641993E-5,-1.1766591E-3,-8.109464E-3,3.1194277E-2,5.2550178E-2,1.455301E-2,-1.2435973E-2,-9.057838E-3,6.702227E-3,-3.2890353E-3,-2.5313757E-2,2.5801037E-2,9.8778205E-3,-2.5610924E-3,3.2494366E-3,2.385525E-2,-2.467803E-3,7.0496555E-3,-1.3205439E-2,2.4749756E-2,1.04023814E-1,2.4611354E-2,3.1243165E-3,3.3286163E-3,-2.7951421E-2,3.520732E-2,8.283912E-3,1.1937987E-2,-1.2596053E-3,1.1908967E-3,4.4863224E-3,-2.8166831E-3,8.1677287E-4,1.3991056E-2,6.8486766E-3,2.376407E-2,6.4193583E-3,-3.7866168E-2,3.5926504E-3,1.3441026E-2,-2.6998613E-3,-6.0781717E-2,-1.7565679E-2,-3.5122745E-2,